svm_type c_svc
kernel_type rbf
gamma 8
nr_class 4
total_sv 1137
rho -0.821438 -0.914733 -1.05219 0.658985 -0.840071 -1.06099
label 0 1 2 20
nr_sv 589 50 496 2
SV
0 8 0 1:0.71319 3:0.5 4:0.42 
0 8 0 1:0.728528 3:0.5 4:0.85 
0 8 0 1:0.759202 3:0.5 4:0.4 
8 0 0 1:0.059701 2:0.8 3:0.5 4:0.26 
0.01788446710344097 0 0 1:0.492537 2:0.7 3:1 4:0.26 
0 8 0 1:1 3:0.5 4:0.31 
0 4.711532990039986 0 1:0.659836 2:0.3 3:0.5 4:0.2 
0 0.5060797173705753 0 1:1 3:0.5 4:0.32 
0 1.278061084516877 0 1:0.206171 3:0.2 
0 8 0 1:0.210379 3:0.2 
0 8 0 1:0.218794 3:0.2 
0 8 0 1:0.228612 3:0.2 
0 8 0 1:0.245442 3:0.2 
0 2.634466863684994 0 1:0.249649 3:0.2 
0 8 0 1:0.295933 3:0.5 4:0.11 
0 8 0 1:0.297335 3:0.5 4:0.08 
0 8 0 1:0.298738 3:0.5 4:0.09 
0 8 0 1:0.381487 3:0.5 4:0.19 
0 8 0 1:0.398317 3:0.5 4:0.19 
0 8 0 1:0.408135 3:0.5 4:0.19 
0 8 0 1:0.409537 3:0.5 4:1 
0 8 0 1:0.426367 3:0.5 4:0.19 
0 8 0 1:0.436185 3:0.5 4:0.19 
0 8 0 1:0.437588 3:0.5 4:0.3 
0 8 0 1:0.454418 3:0.5 4:0.19 
0 8 0 1:0.464236 3:0.5 4:0.19 
0.002508594996237348 0 0 1:0.932679 3:0.2 
4.813195728777278 0 0 1:0.092657 2:0.5 3:0.5 4:0.14 
0 8 0 1:0.25 2:0.3 3:0.5 4:0.48 
0 0.3265068505400492 0 1:0.258741 2:0.3 3:0.1 4:0.02 
0 0.0843043972878904 0 1:0.262238 2:0.3 3:0.5 4:0.48 
0 8 0 1:0.267483 2:0.3 3:0.5 4:0.8 
0 8 0 1:0.578671 3:0.5 4:0.33 
0 8 0 1:0.209459 2:0.7 3:0.5 4:0.46 
0 8 0 1:0.459459 3:0.5 4:0.21 
0 8 0 1:0.467905 3:0.5 4:0.23 
0 8 0 1:0.540541 3:0.5 4:0.34 
0 6.34307571575749 0 1:0.256315 2:0.3 3:0.5 4:0.1 
0 8 0 1:0.443536 3:0.5 4:0.08 
0 8 0 1:0.444279 3:0.5 4:0.09 
0 8 0 1:0.491085 3:0.5 4:0.08 
0 8 0 1:0.491828 3:0.5 4:0.09 
0 8 0 1:0.509658 2:0.7 3:0.5 4:0.42 
0.2719159235428807 0 0 1:0.591382 2:0.5 3:0.5 4:0.25 
5.791638299123703 0 0 1:0.614413 2:0.9 3:1 4:0.27 
8 0 0 1:0.65156 2:0.9 3:0.5 4:0.11 
0 2.727589008580193 0 1:0.889302 3:0.5 4:0.11 
6.905079958985048 0 0 1:0.011583 2:0.8 3:0.5 4:0.21 
7.689183265789136 0 0 1:0.00625 2:0.8 3:0.5 4:0.16 
0.04723491021899476 0.004844901163034336 0 1:0.027027 2:0.8 3:0.5 4:0.61 
0.01685922971393744 0 0 1:0.261261 2:0.3 3:0.5 4:0.38 
7.77205788804316 0 0 1:0.540541 2:0.3 3:0.5 4:0.19 
0 8 0 1:0.28595 3:0.5 4:0.06 
0.04501332141710351 0 0 1:0.026506 2:1 3:0.5 4:0.04 
0.03687028595048503 0 0 1:0.06747 2:0.7 3:0.5 4:0.07 
0 0.8884246357721979 0 1:0.660241 2:0.5 3:0.5 4:0.26 
0 0.06668347135786473 0 1:0.032164 2:0.7 3:0.5 4:0.01 
1.908656500966643 0 0 1:0.146199 2:0.3 3:0.5 4:0.24 
0 0.5051267160286784 0 1:0.149123 2:0.5 3:0.5 4:0.24 
0 8 0 1:0.260234 3:0.5 4:1 
8 0 0 1:0.330409 2:1 3:0.5 4:0.04 
0 2.17960985923479 0 1:0.821637 2:0.7 3:0.5 4:0.28 
0 0.1252936565300977 0 1:0.060403 2:0.8 3:0.5 4:0.49 
0 0.03976529473931213 0 1:0.671141 2:0.7 3:0.5 4:0.1 
0.1835925854483481 0 0 1:0.010511 2:0.8 3:0.5 4:0.47 
0 8 0 1:0.476727 3:0.5 4:0.03 
0 8 0 1:0.483483 3:0.5 4:0.04 
0 8 0 1:0.506006 3:0.5 4:0.09 
0 5.581737543548514 0 1:0.552553 2:0.3 3:0.5 4:0.35 
0 4.497483591284403 0 1:0.666667 2:0.5 3:0.5 4:0.28 
0 8 0 1:0.593878 3:0.5 4:0.72 
0 8 0 1:0.671429 3:0.5 4:0.09 
0.001451304192010988 8 0 1:0.122939 3:0.5 4:0.19 
0 0.0976577418105765 0 1:0.143194 3:0.5 4:0.03 
0 8 0 1:0.144607 3:0.5 4:0.03 
0 8 0 1:0.202544 2:0.3 3:0.5 4:0.7 
0 8 0 1:0.235045 3:0.5 4:0.15 
0 8 0 1:0.282148 3:0.5 4:0.05 
0 8 0 1:0.283561 3:0.5 4:0.05 
0 8 0 1:0.284974 3:0.5 4:0.05 
0 8 0 1:0.291098 3:0.5 4:0.04 
7.994906589731245 8 0 1:0.292511 3:0.5 4:0.47 
0 8 0 1:0.294395 3:0.5 4:0.04 
0 8 0 1:0.299105 3:0.5 4:0.03 
0 8 0 1:0.746228 3:0.5 4:0.4 
0 8 0 1:0.771013 3:0.5 4:0.59 
0 8 0 1:0.218794 3:0.5 4:0.03 
0 8 0 1:0.228612 3:0.5 4:0.03 
0 8 0 1:0.232819 3:0.5 4:0.03 
0 8 0 1:0.242637 3:0.5 4:0.03 
0 8 0 1:0.246844 3:0.5 4:0.03 
0 8 0 1:0.251052 3:0.5 4:0.03 
0 8 0 1:0.255259 3:0.5 4:0.03 
0 0.07970592866960471 0 1:0.697055 2:0.3 3:0.5 4:0.46 
0 1.021958153045701 0 1:0.740533 2:0.3 4:0.15 
0 0.8706412428018591 0 1:0.915849 3:0.5 4:0.06 
0 0.4669719001279982 0 1:0.920056 3:0.5 4:0.06 
0.03891045225980654 0 0 1:0.160246 2:0.9 3:0.5 4:0.04 
0 8 0 1:0.745952 3:0.5 4:0.4 
0 8 0 1:0.771636 3:0.5 4:0.59 
0 0.0009478958981231229 0 1:0.856505 2:0.5 3:0.5 4:1 
0 8 0 1:0.175092 2:0.3 3:0.1 4:0.06 
0 8 0 1:0.340937 2:0.3 3:0.1 4:0.03 
0.001309755811673138 8 0 1:0.352651 2:0.3 4:0.15 
0 4.869296733403678 0 1:0.914303 3:0.5 4:0.14 
8.076168290390567e-05 0 0 1:0.205261 2:0.5 3:1 4:0.02 
0 0.7786661236766224 0 1:0.295723 2:0.3 3:0.5 4:0.09 
0 8 0 1:0.342675 3:0.5 4:0.03 
0 8 0 1:0.343412 3:0.5 4:0.03 
0 8 0 1:0.374385 3:0.5 4:0.08 
0 8 0 1:0.375123 3:0.5 4:0.09 
0 8 0 1:0.420354 3:0.5 4:0.04 
0 8 0 1:0.43412 3:0.5 4:0.67 
0 0.009533555177715184 0 1:0.435595 2:0.5 3:0.5 4:0.74 
0 8 0 1:0.438299 3:0.5 4:0.89 
0 8 0 1:0.442478 3:0.5 4:0.43 
0 8 0 1:0.446657 3:0.5 4:0.56 
0 8 0 1:0.450836 3:0.5 4:0.38 
0 8 0 1:0.455015 3:0.5 4:0.8 
0 8 0 1:0.459194 3:0.5 4:0.73 
0 8 0 1:0.463373 3:0.5 4:0.52 
0 8 0 1:0.467552 3:0.5 4:0.23 
0 8 0 1:0.471731 3:0.5 4:0.68 
0 8 0 1:0.47591 3:0.5 4:0.74 
0 8 0 1:0.480088 3:0.5 4:0.67 
0 8 0 1:0.484267 3:0.5 4:0.41 
0 8 0 1:0.488446 3:0.5 4:0.44 
0 8 0 1:0.492625 3:0.5 4:0.61 
0 8 0 1:0.496804 3:0.5 4:0.42 
0 8 0 1:0.500983 3:0.5 4:0.51 
0 8 0 1:0.505162 3:0.5 4:0.76 
0 8 0 1:0.509341 3:0.5 4:0.61 
0 8 0 1:0.51352 3:0.5 4:0.67 
0 8 0 1:0.517699 3:0.5 4:0.29 
0 8 0 1:0.544494 2:0.3 4:0.15 
0 8 0 1:0.56588 3:0.5 4:0.08 
0 4.523485007363871 0 1:0.566618 3:0.5 4:0.09 
8 0 0 1:0.646264 2:0.9 3:1 4:0.23 
0.1250519584927764 0 0 1:0.667896 2:0.9 3:1 4:0.18 
0 8 0 1:0.897493 3:0.5 4:0.11 
0.01921840048144341 0 0 1:0.956735 2:0.9 3:1 4:0.03 
0 8 0 1:0.209174 2:0.3 3:0.1 4:0.04 
0 8 0 1:0.298471 3:0.5 4:0.11 
0 8 0 1:0.300306 3:0.5 4:0.08 
0 8 0 1:0.302141 3:0.5 4:0.09 
0 8 0 1:0.357187 3:0.5 4:0.19 
7.841777830558565 0 0 1:0.363303 2:0.9 3:0.5 4:0.22 
0 8 0 1:0.365749 3:0.5 4:0.19 
0 8 0 1:0.367584 3:0.5 4:0.22 
0 8 0 1:0.376758 3:0.5 4:0.19 
0 8 0 1:0.378593 3:0.5 4:0.26 
0 8 0 1:0.387768 3:0.5 4:0.19 
0 8 0 1:0.389602 3:0.5 4:0.23 
0 8 0 1:0.403058 3:0.5 4:0.19 
0 8 0 1:0.411621 3:0.5 4:0.19 
0 8 0 1:0.413456 3:0.5 4:0.21 
0 8 0 1:0.42263 3:0.5 4:0.19 
0 8 0 1:0.424465 3:0.5 4:0.2 
0 8 0 1:0.433639 3:0.5 4:0.19 
0 8 0 1:0.435474 3:0.5 4:0.26 
0 8 0 1:0.444648 3:0.5 4:0.19 
0 8 0 1:0.446483 3:0.5 4:0.23 
0 8 0 1:0.459939 3:0.5 4:0.19 
0 8 0 1:0.468502 3:0.5 4:0.19 
0 8 0 1:0.470336 3:0.5 4:0.26 
0 8 0 1:0.524159 3:0.5 4:0.28 
0 8 0 1:0.584709 3:0.5 4:1 
0 3.820361261286707 0 1:0.154967 2:0.15 3:0.5 4:0.07 
0 8 0 1:0.325828 3:0.5 4:0.11 
0 8 0 1:0.330464 3:0.5 4:0.11 
0 8 0 1:0.358278 3:0.5 4:0.11 
0 8 0 1:0.359603 3:0.5 4:0.08 
0 8 0 1:0.360927 3:0.5 4:0.09 
0 0.01629717812882174 0 1:0.854967 2:0.3 3:1 4:0.23 
0 8 0 1:0.448598 2:0.15 3:0.5 4:0.06 
0 8 0 1:0.259925 2:0.7 3:0.5 4:0.48 
0 8 0 1:0.298876 2:0.3 3:0.1 4:0.03 
0 3.88007887704735 0 1:0.308614 2:0.3 3:0.5 4:0.8 
0 8 0 1:0.441199 3:0.5 4:0.22 
0 8 0 1:0.451685 3:0.5 4:0.23 
0 8 0 1:0.743439 3:0.5 4:0.4 
0 8 0 1:0.768077 3:0.5 4:0.59 
0 8 0 1:0.25508 3:0.5 4:0.04 
0 8 1.139357516875036 1:0.257219 3:0.5 4:0.04 
0 8 0 1:0.750802 3:0.5 4:0.4 
0.021082746018492 0 0 1:0.763102 3:0.5 4:0.33 
0 0.4639499827852471 0 1:0.773262 2:0.9 3:0.5 4:0.13 
0 8 0 1:0.775401 3:0.5 4:0.59 
0 0.0005384058074264826 0 1:0.272095 2:0.7 3:0.5 4:0.85 
0 8 0 1:0.406157 3:0.5 4:0.2 
0 8 0 1:0.408143 3:0.5 4:0.31 
0 8 0 1:0.437934 3:0.5 4:0.98 
3.064506642306888 0 0 1:0.020854 2:0.8 3:0.5 4:0.09 
0 0.0245183923614766 0 1:0.214499 2:0.7 3:0.5 4:0.33 
8 0 0 1:0.264151 2:1 3:0.5 4:0.09 
0 0.1815218264025598 0 1:0.272095 2:0.7 3:0.5 4:0.85 
0 8 0 1:0.285998 3:0.5 4:0.3 
0 8 0 1:0.287984 3:0.5 4:1 
0 8 0 1:0.28997 3:0.5 4:1 
0 8 0 1:0.291956 3:0.5 4:1 
0 8 0 1:0.293942 3:0.5 4:1 
0 8 0 1:0.295929 3:0.5 4:1 
0 8 0 1:0.337637 3:0.5 4:0.3 
0 8 0 1:0.339623 3:0.5 4:1 
0 8 0 1:0.341609 3:0.5 4:1 
0 8 0 1:0.343595 3:0.5 4:1 
0 8 0 1:0.345581 3:0.5 4:1 
0 8 0 1:0.347567 3:0.5 4:1 
0 8 0 1:0.406157 3:0.5 4:0.2 
0 8 0 1:0.408143 3:0.5 4:0.31 
0 8 0 1:0.437934 3:0.5 4:0.98 
0 8 0 1:0.263957 3:0.5 4:0.13 
0 8 0 1:0.780099 3:0.5 4:0.59 
0 1.273255813049036 0 1:0.800608 3:0.5 4:0.57 
0 8 0 1:0.341624 2:0.2 3:0.2 4:0.19 
0 8 0 1:0.375274 2:0.3 4:0.15 
0 8 0 1:0.470373 3:0.5 4:0.06 
0.2762267151413994 4.242548429649958 0 1:0.546452 2:0.15 3:0.5 4:0.07 
0 8 0 1:0.433922 3:0.5 4:0.06 
0 3.201483850236947 0 1:0.500353 2:0.3 3:0.5 4:0.08 
0 8 0 1:0.253633 3:0.5 4:0.06 
0 8 0 1:0.724567 3:0.5 4:0.59 
0 8 0 1:0.743253 3:0.5 4:0.57 
0 8 0 1:0.745329 3:0.5 4:0.08 
0 8 0 1:0.249913 3:0.5 4:0.1 
0.0007452554631346439 0 0 1:0.267913 2:0.5 
0.003114106050194209 0.01090053015918519 0 1:0.270682 2:0.7 3:1 4:0.04 
0 8 0 1:0.722395 3:0.5 4:0.59 
0 8 0 1:0.741087 3:0.5 4:0.57 
0 8 0 1:0.743164 3:0.5 4:0.08 
0 8 0 1:0.869231 3:0.5 4:1 
8 0 0 1:0.060334 2:1 3:0.5 4:0.04 
0.3112204725162114 0 0 1:0.646983 2:0.9 3:0.5 4:0.11 
0 0.24204675772139 0 1:0.657253 2:0.5 3:0.5 4:0.45 
0 0.3725656022539821 0 1:0.666239 2:0.5 3:0.5 4:0.25 
0 8 0 1:0.931964 3:0.5 4:0.12 
0 0.6428806975607183 0 1:0.94095 3:0.5 
0 8 0 1:0.953787 3:0.5 
0.001077890471031849 8 0 1:0.98973 3:0.5 4:1 
0 7.996248612090193 0 1:0.137255 2:0.5 3:0.5 4:0.08 
0 8 0 1:0.294118 3:0.5 4:0.46 
0 1.516874472158003 0 1:0.535948 3:0.5 4:0.02 
0 3.322006375518828 0 1:0.264151 2:0.3 3:0.5 4:0.11 
0 8 0 1:0.273585 2:0.2 3:0.5 4:0.13 
0 2.741328827512135 0 1:0.515094 2:0.2 3:0.5 4:0.09 
0 8 0 1:0.522642 2:0.2 3:0.5 4:0.09 
8 0 0 1:0.743396 2:0.2 3:0.5 4:0.16 
0 8 0 1:0.225602 3:0.5 4:0.1 
0 0.1069005383915484 0 1:0.277567 3:0.5 4:0.01 
8 0 0 1:0.019964 2:0.8 3:0.5 4:0.23 
0 8 0 1:0.406534 2:0.7 4:0.07 
0 8 0 1:0.196216 3:0.5 4:0.23 
0 8 0 1:0.206499 3:0.5 4:0.17 
0 8 0 1:0.270259 3:0.5 4:0.09 
0 8 0 1:0.272316 3:0.5 4:0.07 
0 8 0 1:0.285479 3:0.5 4:0.17 
0 8 0 1:0.518305 3:0.5 4:0.04 
0 8 0 1:0.63225 3:0.5 4:0.08 
0 8 0 1:0.634718 3:0.5 4:0.03 
0 8 0 1:0.677499 3:0.5 4:0.1 
0 7.210885338061388 0 1:0.683669 3:0.5 4:0.1 
0 8 0 1:0.901275 3:0.5 4:0.09 
0 8 0 1:0.902509 3:0.5 4:0.09 
0 8 0 1:0.903743 3:0.5 4:0.08 
8 0 0 1:0.012605 2:0.8 3:0.5 4:0.2 
0 8 0 1:0.134454 2:0.5 3:0.5 4:0.09 
0 8 0 1:0.686975 3:0.5 4:1 
0 8 0 1:0.735294 3:0.5 4:0.07 
0 8 0 1:0.315529 3:0.5 4:1 
0 8 0 1:0.342235 3:0.5 4:0.19 
0 8 0 1:0.347181 3:0.5 4:0.08 
0 8 0 1:0.458952 3:0.5 4:0.21 
0 8 0 1:0.466864 3:0.5 4:0.22 
0 8 0 1:0.604352 3:0.5 4:0.08 
0 8 0 1:0.643917 3:0.5 4:0.33 
0 8 0 1:0.659743 3:0.5 4:0.3 
1.158981760272502 0 0 1:0.665678 3:0.5 4:0.24 
0.0001074044189577439 2.263994026546135 0 1:1 3:0.5 4:0.56 
0 0.09000328467782492 0 1:0.144339 2:0.5 3:0.5 4:0.08 
0 3.498951528496967 0 1:0.149525 2:0.5 3:0.5 4:0.1 
0.005224090913015991 0 0 1:0.769231 2:0.2 3:0.5 4:0.11 
0 8 0 1:0.894555 3:0.5 4:0.11 
0.0203916972840288 0 0 1:0.98185 2:0.2 3:0.5 4:0.22 
0 8 0 1:0.71319 3:0.5 4:0.42 
0 8 0 1:0.728528 3:0.5 4:0.85 
0.4618111303983859 0 0 1:0.743865 3:0.5 4:0.26 
0 8 0 1:0.759202 3:0.5 4:0.4 
0 2.633497484223765 0 1:0.828221 2:0.7 3:0.5 4:0.17 
8 0 0 1:0.059701 2:0.8 3:0.5 4:0.26 
2.092844150948741 0 0 1:0.492537 2:0.7 3:1 4:0.26 
0 8 0 1:1 3:0.5 4:0.31 
0 7.663668852371026 0 1:0.659836 2:0.3 3:0.5 4:0.2 
0 3.215786628946139 0 1:1 3:0.5 4:0.32 
0 0.8839520958741103 0 1:0.206171 3:0.2 
0 8 0 1:0.210379 3:0.2 
0 8 0 1:0.218794 3:0.2 
0 8 0 1:0.228612 3:0.2 
0 8 0 1:0.245442 3:0.2 
0 8 0 1:0.295933 3:0.5 4:0.11 
0 8 0 1:0.297335 3:0.5 4:0.08 
0 8 0 1:0.298738 3:0.5 4:0.09 
0 8 0 1:0.381487 3:0.5 4:0.19 
0 8 0 1:0.398317 3:0.5 4:0.19 
0 8 0 1:0.408135 3:0.5 4:0.19 
0 8 0 1:0.409537 3:0.5 4:1 
0 8 0 1:0.426367 3:0.5 4:0.19 
0 8 0 1:0.436185 3:0.5 4:0.19 
0 8 0 1:0.437588 3:0.5 4:0.3 
0 8 0 1:0.454418 3:0.5 4:0.19 
0 8 0 1:0.464236 3:0.5 4:0.19 
2.196283547227859 0 0 1:0.649369 2:0.9 3:0.5 4:0.17 
0.0162066168814961 0 0 1:0.932679 3:0.2 
8 0 0 1:0.092657 2:0.5 3:0.5 4:0.14 
0 2.655641867847775 0 1:0.167832 2:0.3 3:0.1 4:0.05 
0 8 0 1:0.25 2:0.3 3:0.5 4:0.48 
0 0.8630808616329574 0 1:0.258741 2:0.3 3:0.1 4:0.02 
0 4.307468623069292 0 1:0.262238 2:0.3 3:0.5 4:0.48 
0 8 0 1:0.267483 2:0.3 3:0.5 4:0.8 
0 8 0 1:0.578671 3:0.5 4:0.33 
0 8 0 1:0.209459 2:0.7 3:0.5 4:0.46 
0 8 0 1:0.459459 3:0.5 4:0.21 
0 8 0 1:0.467905 3:0.5 4:0.23 
0 8 0 1:0.540541 3:0.5 4:0.34 
0.337060744481088 0 0 1:0.10104 2:0.5 3:0.5 4:0.2 
0 3.593085827257341 0 1:0.256315 2:0.3 3:0.5 4:0.1 
0 8 0 1:0.443536 3:0.5 4:0.08 
0 8 0 1:0.444279 3:0.5 4:0.09 
0 8 0 1:0.491085 3:0.5 4:0.08 
0 8 0 1:0.491828 3:0.5 4:0.09 
0 8 0 1:0.509658 2:0.7 3:0.5 4:0.42 
1.718591271973181 0 0 1:0.55052 2:0.9 3:1 4:0.23 
1.621258421955019 0 0 1:0.572808 2:0.5 3:0.5 4:0.23 
1.204983256681704 0 0 1:0.584695 2:0.5 3:0.5 4:0.22 
0.6295788692510853 0 0 1:0.58841 2:0.5 3:0.5 4:0.22 
1.323766765106802 0 0 1:0.591382 2:0.5 3:0.5 4:0.25 
5.729947771976279 0 0 1:0.614413 2:0.9 3:1 4:0.27 
8 0 0 1:0.65156 2:0.9 3:0.5 4:0.11 
0 8 0 1:0.889302 3:0.5 4:0.11 
8 0 0 1:0.011583 2:0.8 3:0.5 4:0.21 
2.929207042155956 0 0 1:0.00625 2:0.8 3:0.5 4:0.16 
6.190843599375476 1.694243532285768 0 1:0.027027 2:0.8 3:0.5 4:0.61 
5.364254678455438 0 0 1:0.261261 2:0.3 3:0.5 4:0.38 
8 0 0 1:0.540541 2:0.3 3:0.5 4:0.19 
0 1.580237172848667 0 1:0.558559 2:0.3 3:0.5 4:0.1 
0 8 0.2364226911522171 1:0.28595 3:0.5 4:0.06 
1.213978389059305 0 0 1:0.026506 2:1 3:0.5 4:0.04 
5.011991886619504 0 0 1:0.06747 2:0.7 3:0.5 4:0.07 
0 1.18078074464466 0 1:0.660241 2:0.5 3:0.5 4:0.26 
0 0.5610232287087572 0 1:0.032164 2:0.7 3:0.5 4:0.01 
8 0 0 1:0.146199 2:0.3 3:0.5 4:0.24 
0 7.462830347292058 0 1:0.149123 2:0.5 3:0.5 4:0.24 
0.4935804123011637 8 0 1:0.260234 3:0.5 4:1 
8 0 0 1:0.330409 2:1 3:0.5 4:0.04 
0 5.539008418251162 0 1:0.821637 2:0.7 3:0.5 4:0.28 
0 0.6857598483281845 0 1:0.060403 2:0.8 3:0.5 4:0.49 
1.732275890618248 0 0 1:0.281879 2:0.3 3:0.5 4:0.27 
0 1.023470838600093 0 1:0.671141 2:0.7 3:0.5 4:0.1 
6.787684539238049 0 0 1:0.010511 2:0.8 3:0.5 4:0.47 
0 8 0 1:0.476727 3:0.5 4:0.03 
0 8 0 1:0.483483 3:0.5 4:0.04 
0 8 0 1:0.506006 3:0.5 4:0.09 
1.124581378769305 7.829327603609355 0 1:0.552553 2:0.3 3:0.5 4:0.35 
0 0.9090365890597621 0 1:0.666667 2:0.5 3:0.5 4:0.28 
0.151033683775513 0 0 1:0.993243 2:0.7 3:0.5 4:1 
0 8 0 1:0.593878 3:0.5 4:0.72 
0 8 0 1:0.671429 3:0.5 4:0.09 
0.3249326758933772 8 0 1:0.122939 3:0.5 4:0.19 
0 7.390630347110136 0 1:0.143194 3:0.5 4:0.03 
0 8 0 1:0.144607 3:0.5 4:0.03 
0.4340223054451155 8 0 1:0.202544 2:0.3 3:0.5 4:0.7 
0 8 0 1:0.235045 3:0.5 4:0.15 
0 8 0.665136761585716 1:0.282148 3:0.5 4:0.05 
0 8 0 1:0.283561 3:0.5 4:0.05 
0 8 0 1:0.284974 3:0.5 4:0.05 
0 8 0.9176170282222382 1:0.291098 3:0.5 4:0.04 
7.998378962310298 8 0 1:0.292511 3:0.5 4:0.47 
0 8 1.600810748854384 1:0.294395 3:0.5 4:0.04 
0 8 2.16641550367855 1:0.299105 3:0.5 4:0.03 
0 8 0 1:0.746228 3:0.5 4:0.4 
0 8 0 1:0.771013 3:0.5 4:0.59 
0 8 0 1:0.218794 3:0.5 4:0.03 
0 8 0 1:0.228612 3:0.5 4:0.03 
0 8 0 1:0.232819 3:0.5 4:0.03 
0 8 0 1:0.242637 3:0.5 4:0.03 
0 8 0 1:0.246844 3:0.5 4:0.03 
0 8 0 1:0.251052 3:0.5 4:0.03 
0 8 0 1:0.255259 3:0.5 4:0.03 
0 4.732955462074459 0 1:0.697055 2:0.3 3:0.5 4:0.46 
0.114729031992113 7.450769274088024 0 1:0.740533 2:0.3 4:0.15 
0 5.046033228547238 0 1:0.911641 3:0.5 4:0.06 
0 1.237807520927497 0 1:0.915849 3:0.5 4:0.06 
0 0.8212155128899926 0 1:0.920056 3:0.5 4:0.06 
0 0.03420591028821671 0 1:0.924264 3:0.5 4:0.06 
3.264645656426682 0 0 1:0.160246 2:0.9 3:0.5 4:0.04 
0 8 0 1:0.745952 3:0.5 4:0.4 
0 8 0 1:0.771636 3:0.5 4:0.59 
0.0224165687355778 0 0 1:0.840871 2:0.5 3:0.5 4:1 
0 0.1675452019255299 0 1:0.856505 2:0.5 3:0.5 4:1 
0 8 0 1:0.175092 2:0.3 3:0.1 4:0.06 
0 8 0 1:0.340937 2:0.3 3:0.1 4:0.03 
0.0722143136087804 8 0 1:0.352651 2:0.3 4:0.15 
0 8 0 1:0.914303 3:0.5 4:0.14 
0.6043318822967837 0 0 1:0.205261 2:0.5 3:1 4:0.02 
0 2.259032112746024 0 1:0.295723 2:0.3 3:0.5 4:0.09 
0 8 0 1:0.342675 3:0.5 4:0.03 
0 8 0 1:0.343412 3:0.5 4:0.03 
0 8 0 1:0.374385 3:0.5 4:0.08 
0 8 0 1:0.375123 3:0.5 4:0.09 
0 8 0 1:0.420354 3:0.5 4:0.04 
0 8 0 1:0.43412 3:0.5 4:0.67 
0 0.8104225821576646 0 1:0.435595 2:0.5 3:0.5 4:0.74 
0 8 0 1:0.438299 3:0.5 4:0.89 
0 8 0 1:0.442478 3:0.5 4:0.43 
0 8 0 1:0.446657 3:0.5 4:0.56 
0 8 0 1:0.450836 3:0.5 4:0.38 
0 8 0 1:0.455015 3:0.5 4:0.8 
0 8 0 1:0.459194 3:0.5 4:0.73 
0 8 0 1:0.463373 3:0.5 4:0.52 
0 8 0 1:0.467552 3:0.5 4:0.23 
0 8 0 1:0.471731 3:0.5 4:0.68 
0 8 0 1:0.47591 3:0.5 4:0.74 
0 8 0 1:0.480088 3:0.5 4:0.67 
0 8 0 1:0.484267 3:0.5 4:0.41 
0 8 0 1:0.488446 3:0.5 4:0.44 
0 8 0 1:0.492625 3:0.5 4:0.61 
0 8 0 1:0.496804 3:0.5 4:0.42 
0 8 0 1:0.500983 3:0.5 4:0.51 
0 8 0 1:0.505162 3:0.5 4:0.76 
0 8 0 1:0.509341 3:0.5 4:0.61 
0 8 0 1:0.51352 3:0.5 4:0.67 
0 8 0 1:0.517699 3:0.5 4:0.29 
0 8 0 1:0.544494 2:0.3 4:0.15 
0 0.4315466419359271 0 1:0.546214 2:0.3 3:1 4:0.04 
0 8 0 1:0.56588 3:0.5 4:0.08 
0 5.658862847506836 0 1:0.566618 3:0.5 4:0.09 
0 1.193268064763734 0 1:0.583825 2:0.7 3:0.5 4:0.42 
8 0 0 1:0.646264 2:0.9 3:1 4:0.23 
0.7767445265358432 0 0 1:0.667896 2:0.9 3:1 4:0.18 
2.312605785876752 0.04719552470675194 0 1:0.781711 2:0.9 3:1 4:0.04 
0 8 0 1:0.897493 3:0.5 4:0.11 
1.095531025432581 0 0 1:0.956735 2:0.9 3:1 4:0.03 
0 8 0 1:0.209174 2:0.3 3:0.1 4:0.04 
0 8 0 1:0.298471 3:0.5 4:0.11 
0 8 0 1:0.300306 3:0.5 4:0.08 
0 8 0 1:0.302141 3:0.5 4:0.09 
0 8 0 1:0.357187 3:0.5 4:0.19 
7.929760942041444 0 0 1:0.363303 2:0.9 3:0.5 4:0.22 
0 8 0 1:0.365749 3:0.5 4:0.19 
0 8 0 1:0.367584 3:0.5 4:0.22 
0 8 0 1:0.376758 3:0.5 4:0.19 
0 8 0 1:0.378593 3:0.5 4:0.26 
0 8 0 1:0.387768 3:0.5 4:0.19 
0 8 0 1:0.389602 3:0.5 4:0.23 
0 8 0 1:0.403058 3:0.5 4:0.19 
0 8 0 1:0.411621 3:0.5 4:0.19 
0 8 0 1:0.413456 3:0.5 4:0.21 
0 8 0 1:0.42263 3:0.5 4:0.19 
0 8 0 1:0.424465 3:0.5 4:0.2 
0 8 0 1:0.433639 3:0.5 4:0.19 
0 8 0 1:0.435474 3:0.5 4:0.26 
0 8 0 1:0.444648 3:0.5 4:0.19 
0 8 0 1:0.446483 3:0.5 4:0.23 
0 8 0 1:0.459939 3:0.5 4:0.19 
0 8 0 1:0.468502 3:0.5 4:0.19 
0 8 0 1:0.470336 3:0.5 4:0.26 
0 8 0 1:0.524159 3:0.5 4:0.28 
0 8 0 1:0.584709 3:0.5 4:1 
6.07079623091812 0 0 1:0.733333 2:0.3 3:0.5 4:0.29 
0 7.955950352197392 0 1:0.154967 2:0.15 3:0.5 4:0.07 
0 8 0 1:0.325828 3:0.5 4:0.11 
0 8 0 1:0.330464 3:0.5 4:0.11 
0 8 0 1:0.358278 3:0.5 4:0.11 
0 8 0 1:0.359603 3:0.5 4:0.08 
0 8 0 1:0.360927 3:0.5 4:0.09 
0 0.1628580681704092 0 1:0.854967 2:0.3 3:1 4:0.23 
0 8 0 1:0.448598 2:0.15 3:0.5 4:0.06 
0 8 0 1:0.259925 2:0.7 3:0.5 4:0.48 
0 8 0 1:0.298876 2:0.3 3:0.1 4:0.03 
0 7.985832131424377 0 1:0.308614 2:0.3 3:0.5 4:0.8 
0 8 0 1:0.441199 3:0.5 4:0.22 
0 8 0 1:0.451685 3:0.5 4:0.23 
0 8 0 1:0.743439 3:0.5 4:0.4 
0 8 0 1:0.768077 3:0.5 4:0.59 
0 8 0 1:0.25508 3:0.5 4:0.04 
0 8 7.692709954142422 1:0.257219 3:0.5 4:0.04 
0 8 0 1:0.750802 3:0.5 4:0.4 
0.06278137749088999 0 0 1:0.763102 3:0.5 4:0.33 
0 0.462096295901192 0 1:0.773262 2:0.9 3:0.5 4:0.13 
0 8 0 1:0.775401 3:0.5 4:0.59 
0 5.017638913258468 0 1:0.214499 2:0.7 3:0.5 4:0.33 
0 8 0 1:0.406157 3:0.5 4:0.2 
0 8 0 1:0.408143 3:0.5 4:0.31 
0 8 0 1:0.437934 3:0.5 4:0.98 
0 7.962132770528754 0 1:0.214499 2:0.7 3:0.5 4:0.33 
8 0 0 1:0.264151 2:1 3:0.5 4:0.09 
0 4.112705504965817 0 1:0.272095 2:0.7 3:0.5 4:0.85 
0 8 0 1:0.285998 3:0.5 4:0.3 
0 8 0 1:0.287984 3:0.5 4:1 
0 8 0 1:0.28997 3:0.5 4:1 
0 8 0 1:0.291956 3:0.5 4:1 
0 8 0 1:0.293942 3:0.5 4:1 
0 8 0 1:0.295929 3:0.5 4:1 
0 8 0 1:0.337637 3:0.5 4:0.3 
0 8 0 1:0.339623 3:0.5 4:1 
0 8 0 1:0.341609 3:0.5 4:1 
0 8 0 1:0.343595 3:0.5 4:1 
0 8 0 1:0.345581 3:0.5 4:1 
0 8 0 1:0.347567 3:0.5 4:1 
0 8 0 1:0.406157 3:0.5 4:0.2 
0 8 0 1:0.408143 3:0.5 4:0.31 
0 8 0 1:0.437934 3:0.5 4:0.98 
0 8 0 1:0.263957 3:0.5 4:0.13 
0 8 0 1:0.780099 3:0.5 4:0.59 
0 3.406684981777641 0 1:0.800608 3:0.5 4:0.57 
0 8 0 1:0.341624 2:0.2 3:0.2 4:0.19 
0 8 0 1:0.375274 2:0.3 4:0.15 
0 8 0 1:0.470373 3:0.5 4:0.06 
0.3379783833369445 2.299413796027103 0 1:0.546452 2:0.15 3:0.5 4:0.07 
0 8 0 1:0.433922 3:0.5 4:0.06 
0 4.691352811320175 0 1:0.500353 2:0.3 3:0.5 4:0.08 
0 8 0 1:0.253633 3:0.5 4:0.06 
0 8 0 1:0.724567 3:0.5 4:0.59 
0 8 0 1:0.743253 3:0.5 4:0.57 
0 1.622473283248083 0 1:0.745329 3:0.5 4:0.08 
0 8 0 1:0.249913 3:0.5 4:0.1 
0.02939395078642284 0 0 1:0.267913 2:0.5 
0.132608608109557 0 0 1:0.270682 2:0.7 3:1 4:0.04 
0 8 0 1:0.722395 3:0.5 4:0.59 
0 8 0 1:0.741087 3:0.5 4:0.57 
0 8 0 1:0.743164 3:0.5 4:0.08 
4.347086109189379 0 0 1:0.764971 2:0.5 3:1 4:0.18 
0 8 0 1:0.869231 3:0.5 4:1 
8 0 0 1:0.060334 2:1 3:0.5 4:0.04 
8 0 0 1:0.646983 2:0.9 3:0.5 4:0.11 
0 8 0 1:0.657253 2:0.5 3:0.5 4:0.45 
0 0.157939231636974 0 1:0.666239 2:0.5 3:0.5 4:0.25 
0 1.795845486316074 0 1:0.675225 2:0.5 3:0.5 4:0.27 
0 8 0 1:0.931964 3:0.5 4:0.12 
0 5.290907274836727 0 1:0.953787 3:0.5 
0.1435085178611928 8 0 1:0.98973 3:0.5 4:1 
0 2.588392649214585 0 1:0.137255 2:0.5 3:0.5 4:0.08 
0 8 0 1:0.294118 3:0.5 4:0.46 
0 1.556909110367171 0 1:0.535948 3:0.5 4:0.02 
0 1.906740340643417 0 1:0.264151 2:0.3 3:0.5 4:0.11 
0 8 0 1:0.273585 2:0.2 3:0.5 4:0.13 
0 8 0 1:0.515094 2:0.2 3:0.5 4:0.09 
0 8 0 1:0.522642 2:0.2 3:0.5 4:0.09 
0.05491684173307149 0 0 1:0.530189 2:0.2 3:0.5 4:0.11 
8 0 0 1:0.743396 2:0.2 3:0.5 4:0.16 
1.053989742764257 0 0 1:1 2:0.2 3:0.5 
0 8 0 1:0.225602 3:0.5 4:0.1 
0 0.07598986055739647 0.6205525228442856 1:0.277567 3:0.5 4:0.01 
8 0 0 1:0.019964 2:0.8 3:0.5 4:0.23 
0 8 0 1:0.406534 2:0.7 4:0.07 
0 8 0 1:0.196216 3:0.5 4:0.23 
0 8 0 1:0.206499 3:0.5 4:0.17 
0 8 0 1:0.270259 3:0.5 4:0.09 
0 8 0.9609772726451529 1:0.272316 3:0.5 4:0.07 
0 8 0 1:0.285479 3:0.5 4:0.17 
0 0.4686391390895138 0 1:0.494035 2:0.7 3:0.2 4:0.13 
0 8 0 1:0.518305 3:0.5 4:0.04 
0 8 0 1:0.63225 3:0.5 4:0.08 
0 8 0 1:0.634718 3:0.5 4:0.03 
0 8 0 1:0.677499 3:0.5 4:0.1 
0 0.7065589115399652 0 1:0.683669 3:0.5 4:0.1 
0 8 0 1:0.901275 3:0.5 4:0.09 
0 8 0 1:0.902509 3:0.5 4:0.09 
0 8 0 1:0.903743 3:0.5 4:0.08 
8 0 0 1:0.012605 2:0.8 3:0.5 4:0.2 
0 7.900954523233713 0 1:0.134454 2:0.5 3:0.5 4:0.09 
0 8 0 1:0.686975 3:0.5 4:1 
0 8 0 1:0.735294 3:0.5 4:0.07 
0 8 0 1:0.315529 3:0.5 4:1 
0 8 0 1:0.342235 3:0.5 4:0.19 
0 8 0 1:0.347181 3:0.5 4:0.08 
0 8 0 1:0.458952 3:0.5 4:0.21 
0 8 0 1:0.466864 3:0.5 4:0.22 
0 8 0 1:0.604352 3:0.5 4:0.08 
0 8 0 1:0.643917 3:0.5 4:0.33 
0 8 0 1:0.659743 3:0.5 4:0.3 
0.7441195488329794 0 0 1:0.66271 3:0.5 4:0.21 
8 0 0 1:0.665678 3:0.5 4:0.24 
0.04402070768881943 6.469063342411447 0 1:1 3:0.5 4:0.56 
0 0.5208834133834586 0 1:0.144339 2:0.5 3:0.5 4:0.08 
0 8 0 1:0.149525 2:0.5 3:0.5 4:0.1 
5.776312613790282 0 0 1:0.769231 2:0.2 3:0.5 4:0.11 
0 8 0 1:0.894555 3:0.5 4:0.11 
0.2071105532792847 0 0 1:0.98185 2:0.2 3:0.5 4:0.22 
1.007666002700528 0 0 1:1 2:0.7 3:1 4:0.27 
-5.684335737525528 0 0 1:0.507463 2:1 3:1 4:0.26 
-8 0 0 1:0.012295 2:0.8 3:0.5 4:0.18 
-7.098934995247493 0 0 1:0.733607 2:1 3:1 4:0.18 
-8 8 0 1:0.081081 2:0.5 3:0.5 4:0.16 
-6.121331089189969 0 0 1:0.189583 2:1 3:0.5 4:0.11 
-0.0007600782767057955 0 0 1:0.200188 2:1 3:1 4:0.67 
-8 0 0 1:0.020854 2:0.8 3:0.5 4:0.09 
-8 0 0 1:0.264151 2:1 3:0.5 4:0.09 
-8 0 0 1:0.069231 2:0.8 3:0.5 4:0.16 
-7.942389407617122 0 0 1:0.378691 2:1 3:0.5 4:0.15 
-8 0 0 1:0.04902 2:0.8 3:0.5 4:0.2 
-8 8 0 1:0.581699 2:0.5 3:0.5 4:0.2 
-8 8 0 1:0.584967 2:0.15 3:0.5 4:0.2 
-8 0 0 1:0.80566 2:0.2 3:0.5 4:0.12 
-8 0 0 1:0.015209 2:0.8 3:0.5 4:0.5 
-8 8 0 1:0.219265 3:0.5 4:0.5 
-8 0 0 1:0.123412 2:1 3:0.5 4:0.12 
-6.177062330043237 0 0 1:0.613445 2:1 3:0.5 4:0.09 
-8 0 0 1:0.619748 2:0.9 3:0.5 4:0.13 
-8 8 0 1:0.233432 2:0.3 3:0.5 4:0.28 
-8 0 0 1:0.012965 2:0.8 3:0.5 4:0.27 
-8 0 0 1:0.675022 2:0.7 3:1 4:0.27 
-8 8 0 1:0.675886 2:0.15 3:0.5 4:0.27 
-6.577541054557137 0 0 1:0.507463 2:1 3:1 4:0.26 
-8 0 0 1:0.012295 2:0.8 3:0.5 4:0.18 
-8 1.054435295473543 0.0960402869152137 1:0.733607 2:1 3:1 4:0.18 
-8 8 0 1:0.081081 2:0.5 3:0.5 4:0.16 
-5.06304846287796 0 0 1:0.189583 2:1 3:0.5 4:0.11 
-2.434150442989635 1.082894694004826 0.02428136056085053 1:0.140351 2:0.7 3:0.9 4:0.29 
-1.133084350023319 1.307206680024121 0.1308720591647445 1:0.200188 2:1 3:1 4:0.67 
-0 0.6186304344853211 0 1:0.348328 2:1 3:0.5 4:0.23 
-8 0 0.04916259344017589 1:0.020854 2:0.8 3:0.5 4:0.09 
-8 0 0 1:0.264151 2:1 3:0.5 4:0.09 
-0 0.6586278223964486 0.102073646244278 1:0.154725 2:1 3:1 4:0.19 
-8 3.287353465216935 0 1:0.069231 2:0.8 3:0.5 4:0.16 
-5.448805758121256 0 0 1:0.378691 2:1 3:0.5 4:0.15 
-8 0 0 1:0.04902 2:0.8 3:0.5 4:0.2 
-8 8 0 1:0.581699 2:0.5 3:0.5 4:0.2 
-8 8 0.6587329613136121 1:0.584967 2:0.15 3:0.5 4:0.2 
-8 1.653506243094159 0 1:0.80566 2:0.2 3:0.5 4:0.12 
-8 1.937368476084961 0.07837575039311144 1:0.015209 2:0.8 3:0.5 4:0.5 
-8 8 0.2960913550262372 1:0.219265 3:0.5 4:0.5 
-8 0 0.01333500167811547 1:0.123412 2:1 3:0.5 4:0.12 
-0 0.2137406583525192 0.06296344864052776 1:0.194159 2:1 3:0.4 4:0.18 
-8 0 0.119204581386229 1:0.613445 2:1 3:0.5 4:0.09 
-8 2.47928687755907 0 1:0.619748 2:0.9 3:0.5 4:0.13 
-8 8 0.5412544595337614 1:0.233432 2:0.3 3:0.5 4:0.28 
-8 0 0 1:0.012965 2:0.8 3:0.5 4:0.27 
-8 1.032667883643179 0.08998408882626069 1:0.675022 2:0.7 3:1 4:0.27 
-8 8 0 1:0.675886 2:0.15 3:0.5 4:0.27 
-8 -0 0 1:0.245399 3:0.5 4:0.06 
-8 -8 0 1:0.537313 2:0.3 3:0.5 4:0.15 
-8 -0 0 1:0.552239 2:0.3 3:0.5 4:0.11 
-8 -0 0 1:0.820896 3:0.5 4:0.45 
-8 -0 0 1:0.850746 3:0.5 4:0.51 
-4.553775450858041 -0 0 1:0.741803 3:0.5 4:0.89 
-0.02913428154709225 -0 0 1:0.199158 3:0.2 4:1 
-8 -0 0 1:0.207574 3:0.2 4:0.04 
-1.07461731203356 -0 0 1:0.239832 3:0.2 4:0.61 
-8 -0 0 1:0.246844 3:0.2 4:0.04 
-8 -0 0 1:0.241259 2:0.2 3:0.2 4:0.05 
-8 -0 0 1:0.270979 2:0.3 4:0.1 
-5.867586077694308 -0 0 1:0.290541 3:0.5 4:0.18 
-4.915757910130322 -0 0 1:0.304054 3:0.5 4:1 
-8 -0 0 1:0.305743 3:0.5 4:1 
-8 -0 0 1:0.310811 3:0.5 4:0.17 
-0.5045946890136583 -0 0 1:0.326014 3:0.5 4:1 
-8 -0 0 1:0.351351 2:0.3 4:0.09 
-0.04716873254184857 -0 0 1:0.448737 3:1 4:0.27 
-8 -0 0 1:0.44948 3:0.5 4:0.27 
-8 -0 0 1:0.450966 3:0.5 4:0.38 
-8 -0 0 1:0.459881 2:0.3 4:0.15 
-8 -8 0 1:0.096525 2:0.5 3:0.5 4:0.09 
-5.265630765890029 -0 0 1:0.104247 3:0.5 4:1 
-8 -0 0 1:0.131274 2:0.5 3:0.5 4:0.07 
-8 -3.010424695424213 0 1:0.220833 2:0.5 3:0.5 4:0.23 
-1.969939598988008 -0 0 1:0.304132 2:0.2 3:0.2 4:0.19 
-2.168249472956555 -0 0 1:0.309091 3:0.5 4:1 
-4.440434203294402 -0 0 1:0.312397 3:0.5 4:0.31 
-1.059795044758022 -0 0 1:0.330579 2:0.2 3:0.2 4:0.1 
-8 -0 0 1:0.335537 3:0.5 4:0.37 
-8 -0 0 1:0.33719 3:0.5 4:0.21 
-2.214363874772983 -0 0 1:0.370248 2:0.3 4:0.16 
-3.178738611504692 -0 0 1:0.315663 3:0.5 4:0.33 
-8 -0 0 1:0.327711 3:0.5 4:0.1 
-8 -0 0 1:0.33253 3:0.5 4:0.28 
-0.02719627849484272 -0 0 1:0.339759 3:0.5 4:1 
-8 -0 0 1:0.344578 3:0.5 4:0.29 
-8 -0 0 1:0.346988 3:0.5 4:0.11 
-0.07889650958489312 -0 0 1:0.351807 3:0.5 4:1 
-8 -0 0 1:0.359036 3:0.5 4:0.73 
-0.2182335748005547 -0 0 1:0.361446 3:0.5 4:1 
-8 -0 0 1:0.363855 3:0.5 4:0.74 
-8 -0 0 1:0.366265 3:0.5 4:0.04 
-8 -0 0 1:0.371084 3:0.5 4:0.05 
-8 -0 0 1:0.375904 3:0.5 4:0.11 
-8 -0 0 1:0.383133 3:0.5 4:0.1 
-8 -0 0 1:0.387952 3:0.5 4:0.17 
-8 -0 0 1:0.39759 3:0.5 4:0.15 
-8 -0 0 1:0.407229 3:0.5 4:0.12 
-8 -0 0 1:0.416867 3:0.5 4:0.15 
-8 -0 0 1:0.421687 3:0.5 4:0.43 
-8 -0 0 1:0.426506 3:0.5 4:0.13 
-8 -0 0 1:0.431325 3:0.5 4:0.15 
-4.224287954965599 -0 0 1:0.436145 3:0.5 4:0.47 
-8 -0 0 1:0.440964 3:0.5 4:0.13 
-8 -0 0 1:0.445783 3:0.5 4:0.44 
-8 -0 0 1:0.450602 3:0.5 4:0.12 
-8 -0 0 1:0.455422 3:0.5 4:0.69 
-8 -0 0 1:0.460241 3:0.5 4:0.12 
-8 -0 0 1:0.46506 3:0.5 4:0.12 
-8 -0 0 1:0.46988 3:0.5 4:0.08 
-8 -0 0 1:0.474699 3:0.5 4:0.19 
-8 -0 0 1:0.484337 3:0.5 4:0.11 
-8 -0 0 1:0.493976 3:0.5 4:0.11 
-8 -0 0 1:0.498795 3:0.5 4:0.47 
-8 -0 0 1:0.503614 3:0.5 4:0.17 
-8 -0 0 1:0.508434 3:0.5 4:0.27 
-8 -0 0 1:0.513253 3:0.5 4:0.04 
-8 -0 0 1:0.518072 3:0.5 4:0.13 
-8 -0 0 1:0.522892 3:0.5 4:0.21 
-8 -0 0 1:0.53494 3:0.5 4:0.42 
-8 -0 0 1:0.539759 3:0.5 4:0.19 
-8 -0 0 1:0.542169 3:0.5 4:0.06 
-8 -0 0 1:0.166667 3:0.2 4:0.04 
-8 -0 0 1:0.190058 3:0.5 4:0.05 
-8 -0 0 1:0.19883 3:0.5 4:0.1 
-8 -0 0 1:0.315436 3:0.5 4:0.31 
-8 -0 0 1:0.342282 3:0.5 4:0.21 
-8 -0 0 1:0.369128 3:0.5 4:0.29 
-8 -0 0 1:0.395973 3:0.5 4:0.25 
-1.817812980447649 -0 0 1:0.416107 3:0.5 4:1 
-8 -0 0 1:0.42953 3:0.5 4:1 
-8 -0 0 1:0.436242 3:0.5 4:0.75 
-8 -0 0 1:0.530781 3:0.5 4:0.81 
-8 -0 0 1:0.537538 3:0.5 4:0.48 
-8 -0 0 1:0.538776 3:0.5 4:0.39 
-8 -0 0 1:0.55102 3:0.5 4:0.11 
-2.932470951700962 -0 0 1:0.57551 3:0.5 4:0.78 
-8 -0 0 1:0.657143 2:0.3 4:0.17 
-8 -0 0 1:0.218088 2:0.3 3:0.5 4:0.13 
-8 -0 0 1:0.222798 3:0.5 4:0.1 
-8 -0 0 1:0.224211 3:0.5 4:0.04 
-0 -7.497686989440528 0 1:0.229863 3:0.5 4:0.48 
-8 -0 0 1:0.231276 3:0.5 4:0.05 
-8 -0 0 1:0.469846 2:0.7 3:0.5 4:0.51 
-8 -0 0 1:0.483871 2:0.15 3:0.5 4:0.11 
-8 -0 0 1:0.486676 2:0.15 3:0.5 4:0.1 
-8 -1.565176831465079 0 1:0.489481 2:0.15 3:0.5 4:0.16 
-8 -0 0 1:0.493689 3:0.5 4:0.07 
-8 -0 0 1:0.510519 3:0.5 4:0.27 
-8 -0 0 1:0.514727 3:0.5 4:0.2 
-8 -0 0 1:0.527349 3:0.5 4:0.08 
-8 -0 0 1:0.542777 3:0.5 4:0.34 
-8 -0 0 1:0.546985 3:0.5 4:0.2 
-5.329296350577872 -0 0 1:0.568022 3:0.5 4:0.74 
-8 -0 0 1:0.58906 3:0.5 4:0.1 
-8 -0 0 1:0.600281 3:0.5 4:0.16 
-7.356711245932643 -0 0 1:0.604488 3:0.5 4:0.62 
-8 -0 0 1:0.608696 3:0.5 4:0.68 
-8 -0 0 1:0.612903 3:0.5 4:0.54 
-8 -0 0 1:0.617111 3:0.5 4:0.71 
-0.8421361812859058 -0 0 1:0.621318 3:0.5 4:1 
-8 -0 0 1:0.625526 3:0.5 4:0.57 
-1.07851358947865 -0 0 1:0.629734 3:0.5 4:1 
-4.07407793663412 -0 0 1:0.633941 3:0.5 4:1 
-8 -0 0 1:0.638149 3:0.5 4:0.1 
-8 -0 0 1:0.645161 3:0.5 4:0.29 
-8 -0 0 1:0.649369 3:0.5 4:0.32 
-8 -0 0 1:0.653576 3:0.5 4:0.51 
-8 -0 0 1:0.657784 3:0.5 4:0.46 
-8 -0 0 1:0.661992 3:0.5 4:0.34 
-8 -0 0 1:0.666199 3:0.5 4:0.56 
-8 -0 0 1:0.670407 3:0.5 4:0.02 
-8 -0 0 1:0.674614 3:0.5 4:0.72 
-8 -0 0 1:0.683029 3:0.5 4:0.61 
-8 -0 0 1:0.236181 3:0.5 4:0.11 
-8 -0 0 1:0.237856 3:0.5 4:0.1 
-8 -0 0 1:0.241206 3:0.5 4:0.07 
-8 -0 0 1:0.25349 2:0.3 3:0.5 4:0.75 
-8 -0 0 1:0.255165 3:0.5 4:0.08 
-8 -0 0 1:0.278615 2:0.3 3:0.5 4:0.93 
-8 -0 0 1:0.28029 3:0.5 4:0.1 
-8 -0 0 1:0.284757 3:0.5 4:0.16 
-8 -0 0 1:0.299832 3:0.5 4:0.1 
-8 -0 0 1:0.318816 3:0.5 4:0.07 
-8 -0 0 1:0.21455 2:0.7 3:0.5 4:0.46 
-8 -0 0 1:0.221332 3:0.5 4:0.08 
-8 -0 0 1:0.22688 3:0.5 4:0.02 
-8 -0 0 1:0.236128 3:0.5 4:0.06 
-8 -0 0 1:0.239827 3:0.5 4:0.12 
-8 -0 0 1:0.241677 3:0.5 4:0.04 
-8 -0 0 1:0.243527 3:0.5 4:0.08 
-8 -0 0 1:0.247226 3:0.5 4:0.04 
-8 -0 0 1:0.249075 3:0.5 4:0.11 
-8 -0 0.2990573773371508 1:0.262022 3:0.5 4:0.03 
-8 -0 0 1:0.293465 3:0.5 4:0.05 
-8 -0 0 1:0.296547 3:0.5 4:0.1 
-8 -0 0 1:0.304562 3:0.5 4:1 
-8 -0 0 1:0.31566 3:0.5 4:0.02 
-8 -0 0 1:0.318742 3:0.5 4:0.08 
-8 -0 0 1:0.328607 3:0.5 4:0.29 
-8 -0 0 1:0.380039 3:0.5 4:0.13 
-4.983215206443356 -0 0 1:0.380531 3:0.5 4:0.79 
-8 -0 0 1:0.381514 3:0.5 4:0.19 
-8 -0 0 1:0.382252 3:0.5 4:0.07 
-8 -0 0 1:0.383727 3:0.5 4:0.79 
-0.1665111539082035 -0 0 1:0.384956 3:0.5 4:1 
-0.04552823596119363 -0 0 1:0.386185 3:0.5 4:1 
-8 -0 0 1:0.387168 3:0.5 4:0.31 
-8 -0 0 1:0.387906 3:0.5 4:0.16 
-0.1268622315309086 -0 0 1:0.388889 3:0.5 4:1 
-0.05280836446711398 -0 0 1:0.389381 3:0.5 4:1 
-0.5670706557306401 -0 0 1:0.259939 3:0.2 4:1 
-0.3314873560935546 -0 0 1:0.269113 2:0.7 4:0.15 
-8 -0 0 1:0.274172 3:0.5 4:0.13 
-8 -0 0 1:0.284768 3:0.5 4:0.03 
-5.175271201901729 -0 0 1:0.468212 2:0.7 4:0.14 
-8 -0 0 1:0.230307 2:0.7 3:0.5 4:0.57 
-8 -0 0 1:0.267023 2:0.2 3:0.2 4:0.01 
-8 -0 0 1:0.211985 2:0.3 3:0.1 4:0.06 
-8 -0 0 1:0.313109 2:0.3 4:0.1 
-8 -0 0 1:0.249598 3:0.5 4:0.12 
-8 -0 0 1:0.241176 2:0.3 3:0.5 4:0.54 
-8 -0 0 1:0.24385 2:0.3 3:0.5 4:0.59 
-0.3179211574088322 -0 0 1:0.259358 4:0.07 
-8 -0 0 1:0.337637 3:0.5 4:0.3 
-7.417762211067166 -0 0 1:0.339623 3:0.5 4:1 
-8 -0 0 1:0.341609 3:0.5 4:1 
-8 -0 0 1:0.343595 3:0.5 4:1 
-8 -0 0 1:0.345581 3:0.5 4:1 
-8 -0 0 1:0.347567 3:0.5 4:1 
-8 -0 0 1:0.208486 2:0.7 3:0.5 4:0.31 
-8 -0 0 1:0.297732 3:0.5 4:0.01 
-8 -0 0 1:0.307242 3:0.5 4:1 
-8 -0 0 1:0.324067 2:0.2 3:0.2 4:0.04 
-8 -0 0 1:0.308834 3:0.5 4:0.04 
-8 -0 0 1:0.24126 2:0.3 3:0.5 4:0.04 
-8 -0 0 1:0.507692 3:0.5 4:0.42 
-5.282283500948799 -0 0 1:0.653846 3:0.5 4:1 
-8 -0 0 1:0.7 3:0.5 4:0.51 
-8 -0 0 1:0.823077 3:0.5 4:0.37 
-0.6827419333744191 -0 0 1:0.930769 3:0.5 4:1 
-8 -0 0 1:1 3:0.5 4:0.15 
-8 -0 0 1:0.410783 3:0.5 4:1 
-8 -0 0 1:0.417202 3:0.5 4:0.34 
-8 -0 0 1:0.422336 3:0.5 4:0.46 
-8 -0 0 1:0.427471 3:0.5 4:1 
-1.84612591896921 -0 0 1:0.437741 3:0.5 4:1 
-8 -0 0 1:0.442875 3:0.5 4:0.06 
-8 -0 0 1:0.446727 3:0.5 4:0.14 
-8 -0 0 1:0.450578 3:0.5 4:0.72 
-8 -0 0 1:0.465982 3:0.5 4:0.04 
-8 -0 0 1:0.468549 3:0.5 4:0.06 
-8 -0 0 1:0.472401 3:0.5 4:0.17 
-8 -0 0 1:0.478819 3:0.5 4:0.15 
-8 -0 0 1:0.48267 3:0.5 4:0.41 
-8 -0 0 1:0.500642 3:0.5 4:0.14 
-8 -0 0 1:0.504493 3:0.5 4:0.4 
-6.051895324035556 -0 0 1:0.51733 3:0.5 4:0.83 
-8 -0 0 1:0.521181 3:0.5 4:0.06 
-8 -0 0 1:0.656863 2:0.5 3:0.5 4:0.39 
-8 -0 0 1:0.745098 3:0.5 4:0.73 
-8 -0 0 1:0.784314 3:0.5 4:0.51 
-8 -0 0 1:0.823529 3:0.5 4:0.6 
-8 -0 0 1:0.843396 3:0.5 4:0.1 
-8 -0 0 1:0.850943 3:0.5 4:0.02 
-8 -0 0 1:0.854717 3:0.5 4:0.1 
-8 -0 0 1:0.866038 3:0.5 4:0.02 
-8 -0 0 1:0.869811 3:0.5 4:0.1 
-8 -0 0 1:0.873585 3:0.5 4:0.57 
-8 -0 0 1:0.884906 3:0.5 4:0.05 
-8 -0 0 1:0.888679 3:0.5 4:0.11 
-8 -0 0 1:0.892453 3:0.5 4:0.3 
-8 -0 0 1:0.907547 3:0.5 4:0.13 
-8 -0 0 1:0.918868 3:0.5 4:0.16 
-8 -0 0 1:0.926415 3:0.5 4:0.51 
-8 -0 0 1:0.930189 3:0.5 4:0.04 
-8 -0 0 1:0.933962 3:0.5 4:1 
-8 -0 0 1:0.941509 3:0.5 4:1 
-8 -0 0 1:0.297641 3:0.5 4:0.18 
-8 -0 0 1:0.315789 3:0.5 4:1 
-8 -0 0 1:0.321234 3:0.5 4:0.2 
-0.003800870110230901 -0 0 1:0.348457 3:0.5 4:1 
-8 -0 0 1:0.353902 3:0.5 4:0.19 
-8 -0 0 1:0.361162 3:0.5 4:0.2 
-0.5437763420780397 -0 0 1:0.372051 3:0.5 4:1 
-0.2713846201261315 -0 0 1:0.38294 3:0.5 4:1 
-1.142019528542604 -0 0 1:0.393829 3:0.5 4:1 
-8 -0 0 1:0.399274 3:0.5 4:0.26 
-8 -0 0 1:0.232415 3:0.4 
-8 -5.703603562372658 0 1:0.655462 2:0.3 3:0.5 4:0.36 
-2.832494467418671 -0 0 1:0.678571 3:0.5 4:1 
-8 -0 0 1:0.298714 3:0.5 4:0.15 
-8 -0 0 1:0.301682 3:0.5 4:0.02 
-8 -0 0 1:0.304649 3:0.5 4:0.16 
-8 -0 0 1:0.312562 3:0.5 4:1 
-8 -0 0 1:0.748487 3:0.5 4:0.17 
-8 -0 0 1:0.755402 2:0.7 3:0.5 4:0.24 
-8 -0 0.82410579094071 1:0.245399 3:0.5 4:0.06 
-8 -8 0 1:0.537313 2:0.3 3:0.5 4:0.15 
-8 -1.682067284982874 0 1:0.552239 2:0.3 3:0.5 4:0.11 
-8 -0 0 1:0.820896 3:0.5 4:0.45 
-8 -0 0 1:0.850746 3:0.5 4:0.51 
-0.4159270382457118 -0.1240848917166567 0 1:0.199158 3:0.2 4:1 
-0 -0.1173718206768688 0 1:0.200561 3:0.2 4:0.72 
-8 -0 0 1:0.207574 3:0.2 4:0.04 
-0.003578086412761807 -0 0 1:0.239832 3:0.2 4:0.61 
-8 -0 0 1:0.246844 3:0.2 4:0.04 
-8 -0 0 1:0.241259 2:0.2 3:0.2 4:0.05 
-8 -0 0 1:0.270979 2:0.3 4:0.1 
-1.975335556099201 -0 0 1:0.290541 3:0.5 4:0.18 
-6.845131100193408 -0 0 1:0.304054 3:0.5 4:1 
-8 -0 0 1:0.305743 3:0.5 4:1 
-8 -0 0 1:0.310811 3:0.5 4:0.17 
-8 -0 0 1:0.351351 2:0.3 4:0.09 
-2.380007351854871 -0.2757397133824141 0 1:0.448737 3:1 4:0.27 
-8 -0 0 1:0.44948 3:0.5 4:0.27 
-8 -0 0 1:0.450966 3:0.5 4:0.38 
-8 -0 0 1:0.459881 2:0.3 4:0.15 
-8 -3.772063646343318 0 1:0.096525 2:0.5 3:0.5 4:0.09 
-2.69000171795976 -0.2688767919360316 0 1:0.104247 3:0.5 4:1 
-8 -0 0 1:0.131274 2:0.5 3:0.5 4:0.07 
-8 -8 0 1:0.220833 2:0.5 3:0.5 4:0.23 
-0.3247933333020165 -0 0 1:0.309091 3:0.5 4:1 
-8 -0 0 1:0.312397 3:0.5 4:0.31 
-0.01816390660696377 -0 0 1:0.330579 2:0.2 3:0.2 4:0.1 
-8 -0 0 1:0.335537 3:0.5 4:0.37 
-8 -0 0 1:0.33719 3:0.5 4:0.21 
-0.005167032851162818 -0 0 1:0.370248 2:0.3 4:0.16 
-1.5699384992614 -0 0 1:0.315663 3:0.5 4:0.33 
-8 -0 0 1:0.327711 3:0.5 4:0.1 
-8 -0 0 1:0.33253 3:0.5 4:0.28 
-8 -0 0 1:0.344578 3:0.5 4:0.29 
-8 -0 0 1:0.346988 3:0.5 4:0.11 
-0.01531847946903468 -0 0 1:0.351807 3:0.5 4:1 
-8 -0 0 1:0.359036 3:0.5 4:0.73 
-0.03051488921451786 -0 0 1:0.361446 3:0.5 4:1 
-8 -0 0 1:0.363855 3:0.5 4:0.74 
-8 -0 0 1:0.366265 3:0.5 4:0.04 
-8 -0 0 1:0.371084 3:0.5 4:0.05 
-8 -0 0 1:0.375904 3:0.5 4:0.11 
-8 -0 0 1:0.383133 3:0.5 4:0.1 
-8 -0 0 1:0.387952 3:0.5 4:0.17 
-8 -0 0 1:0.39759 3:0.5 4:0.15 
-8 -0 0 1:0.407229 3:0.5 4:0.12 
-8 -0 0 1:0.416867 3:0.5 4:0.15 
-8 -0 0 1:0.421687 3:0.5 4:0.43 
-8 -0 0 1:0.426506 3:0.5 4:0.13 
-8 -0 0 1:0.431325 3:0.5 4:0.15 
-8 -0 0 1:0.436145 3:0.5 4:0.47 
-8 -0 0 1:0.440964 3:0.5 4:0.13 
-8 -0 0 1:0.445783 3:0.5 4:0.44 
-8 -0 0 1:0.450602 3:0.5 4:0.12 
-8 -0 0 1:0.455422 3:0.5 4:0.69 
-8 -0 0 1:0.460241 3:0.5 4:0.12 
-8 -0 0 1:0.46506 3:0.5 4:0.12 
-8 -0 0 1:0.46988 3:0.5 4:0.08 
-8 -0 0 1:0.474699 3:0.5 4:0.19 
-8 -0 0 1:0.484337 3:0.5 4:0.11 
-8 -0 0 1:0.493976 3:0.5 4:0.11 
-8 -0 0 1:0.498795 3:0.5 4:0.47 
-8 -0 0 1:0.503614 3:0.5 4:0.17 
-8 -0 0 1:0.508434 3:0.5 4:0.27 
-8 -0 0 1:0.513253 3:0.5 4:0.04 
-8 -0 0 1:0.518072 3:0.5 4:0.13 
-8 -0 0 1:0.522892 3:0.5 4:0.21 
-8 -0 0 1:0.53494 3:0.5 4:0.42 
-8 -0 0 1:0.539759 3:0.5 4:0.19 
-8 -0 0 1:0.542169 3:0.5 4:0.06 
-8 -0 0 1:0.166667 3:0.2 4:0.04 
-0 -3.876476131652538 0 1:0.184211 3:0.5 4:0.32 
-8 -0 0 1:0.190058 3:0.5 4:0.05 
-8 -0 0 1:0.19883 3:0.5 4:0.1 
-0 -0.5766303619765928 0 1:0.21345 3:0.5 4:0.59 
-8 -0 0 1:0.315436 3:0.5 4:0.31 
-8 -0 0 1:0.342282 3:0.5 4:0.21 
-8 -0 0 1:0.369128 3:0.5 4:0.29 
-8 -0 0 1:0.395973 3:0.5 4:0.25 
-0.3081415333684154 -0 0 1:0.416107 3:0.5 4:1 
-8 -0 0 1:0.42953 3:0.5 4:1 
-8 -0 0 1:0.436242 3:0.5 4:0.75 
-8 -0 0 1:0.530781 3:0.5 4:0.81 
-8 -0 0 1:0.537538 3:0.5 4:0.48 
-8 -0 0 1:0.538776 3:0.5 4:0.39 
-8 -0 0 1:0.55102 3:0.5 4:0.11 
-2.357947965213752 -0 0 1:0.57551 3:0.5 4:0.78 
-8 -0.3576743558499232 0 1:0.657143 2:0.3 4:0.17 
-8 -3.181091501112283 0 1:0.218088 2:0.3 3:0.5 4:0.13 
-8 -0 0 1:0.222798 3:0.5 4:0.1 
-8 -0 0 1:0.224211 3:0.5 4:0.04 
-0 -6.630673963987738 0 1:0.229863 3:0.5 4:0.48 
-8 -0 0 1:0.231276 3:0.5 4:0.05 
-8 -0 0 1:0.469846 2:0.7 3:0.5 4:0.51 
-8 -0 0 1:0.483871 2:0.15 3:0.5 4:0.11 
-8 -0 0 1:0.486676 2:0.15 3:0.5 4:0.1 
-8 -3.177812942376066 0 1:0.489481 2:0.15 3:0.5 4:0.16 
-8 -0 0 1:0.493689 3:0.5 4:0.07 
-8 -0 0 1:0.510519 3:0.5 4:0.27 
-8 -0 0 1:0.514727 3:0.5 4:0.2 
-8 -0 0 1:0.527349 3:0.5 4:0.08 
-8 -0 0 1:0.542777 3:0.5 4:0.34 
-8 -0 0 1:0.546985 3:0.5 4:0.2 
-3.633689146875811 -0 0 1:0.568022 3:0.5 4:0.74 
-8 -0 0 1:0.58906 3:0.5 4:0.1 
-8 -0 0 1:0.600281 3:0.5 4:0.16 
-6.016356717543629 -0 0 1:0.604488 3:0.5 4:0.62 
-8 -0 0 1:0.608696 3:0.5 4:0.68 
-8 -0 0 1:0.612903 3:0.5 4:0.54 
-8 -0 0 1:0.617111 3:0.5 4:0.71 
-0.2290731074141188 -0 0 1:0.621318 3:0.5 4:1 
-8 -0 0 1:0.625526 3:0.5 4:0.57 
-2.517244551238276 -0 0 1:0.629734 3:0.5 4:1 
-0.9871164685399617 -0 0 1:0.633941 3:0.5 4:1 
-8 -0 0 1:0.638149 3:0.5 4:0.1 
-8 -6.953073991261943 0 1:0.645161 3:0.5 4:0.29 
-8 -0 0 1:0.649369 3:0.5 4:0.32 
-8 -0 0 1:0.653576 3:0.5 4:0.51 
-8 -0 0 1:0.657784 3:0.5 4:0.46 
-8 -0 0 1:0.661992 3:0.5 4:0.34 
-8 -0 0 1:0.666199 3:0.5 4:0.56 
-8 -0 0 1:0.670407 3:0.5 4:0.02 
-8 -0 0 1:0.674614 3:0.5 4:0.72 
-8 -0 0 1:0.683029 3:0.5 4:0.61 
-8 -0 0 1:0.236181 3:0.5 4:0.11 
-8 -0 0 1:0.237856 3:0.5 4:0.1 
-8 -0 0 1:0.241206 3:0.5 4:0.07 
-8 -0 0 1:0.25349 2:0.3 3:0.5 4:0.75 
-8 -0 0.5953633341970073 1:0.255165 3:0.5 4:0.08 
-8 -0 0 1:0.278615 2:0.3 3:0.5 4:0.93 
-8 -0 0.3431999949387129 1:0.28029 3:0.5 4:0.1 
-8 -0 0 1:0.284757 3:0.5 4:0.16 
-8 -0 0 1:0.299832 3:0.5 4:0.1 
-8 -0 0 1:0.318816 3:0.5 4:0.07 
-0.06117562760132474 -0 0 1:0.320491 4:0.08 
-8 -0 0 1:0.21455 2:0.7 3:0.5 4:0.46 
-8 -0 0 1:0.221332 3:0.5 4:0.08 
-8 -0 0 1:0.22688 3:0.5 4:0.02 
-8 -0 0 1:0.236128 3:0.5 4:0.06 
-8 -0 0 1:0.239827 3:0.5 4:0.12 
-8 -0 0 1:0.241677 3:0.5 4:0.04 
-8 -0 0 1:0.243527 3:0.5 4:0.08 
-8 -0 0.08283854143576938 1:0.247226 3:0.5 4:0.04 
-8 -0 0 1:0.249075 3:0.5 4:0.11 
-8 -0 8 1:0.262022 3:0.5 4:0.03 
-0 -0.3265358376142121 0 1:0.281751 2:0.2 3:0.2 4:0.18 
-8 -0 3.930639906332229 1:0.293465 3:0.5 4:0.05 
-8 -0 0 1:0.296547 3:0.5 4:0.1 
-8 -0 0 1:0.304562 3:0.5 4:1 
-8 -0 0 1:0.31566 3:0.5 4:0.02 
-8 -0 0 1:0.318742 3:0.5 4:0.08 
-8 -0 0 1:0.328607 3:0.5 4:0.29 
-8 -0 0 1:0.380039 3:0.5 4:0.13 
-1.721956011188198 -0 0 1:0.380531 3:0.5 4:0.79 
-8 -0 0 1:0.381514 3:0.5 4:0.19 
-8 -0 0 1:0.382252 3:0.5 4:0.07 
-8 -0 0 1:0.383727 3:0.5 4:0.79 
-0.008257902644195111 -0 0 1:0.384956 3:0.5 4:1 
-0.01827800944280312 -0 0 1:0.386185 3:0.5 4:1 
-8 -0 0 1:0.387168 3:0.5 4:0.31 
-8 -0 0 1:0.387906 3:0.5 4:0.16 
-0.01395664585454408 -0 0 1:0.388889 3:0.5 4:1 
-0 -0.01916926907080126 0 1:0.259939 3:0.2 4:1 
-7.154880442614311 -0 0 1:0.269113 2:0.7 4:0.15 
-8 -0 0 1:0.274172 3:0.5 4:0.13 
-8 -0 1.924795054818421 1:0.284768 3:0.5 4:0.03 
-7.8228085646831 -0.3691896852432862 0 1:0.468212 2:0.7 4:0.14 
-8 -0 0 1:0.230307 2:0.7 3:0.5 4:0.57 
-8 -0 0 1:0.267023 2:0.2 3:0.2 4:0.01 
-8 -0 0 1:0.211985 2:0.3 3:0.1 4:0.06 
-8 -0 0 1:0.313109 2:0.3 4:0.1 
-8 -0 0 1:0.249598 3:0.5 4:0.12 
-8 -4.54099638893302 0 1:0.241176 2:0.3 3:0.5 4:0.54 
-8 -0 0 1:0.24385 2:0.3 3:0.5 4:0.59 
-3.044857565561492 -0 0 1:0.259358 4:0.07 
-8 -0 0 1:0.337637 3:0.5 4:0.3 
-8 -0 0 1:0.339623 3:0.5 4:1 
-8 -0 0 1:0.341609 3:0.5 4:1 
-8 -0 0 1:0.343595 3:0.5 4:1 
-8 -0 0 1:0.345581 3:0.5 4:1 
-8 -0 0 1:0.347567 3:0.5 4:1 
-8 -4.006389286689474 0 1:0.208486 2:0.7 3:0.5 4:0.31 
-8 -0 0 1:0.297732 3:0.5 4:0.01 
-8 -0 0 1:0.307242 3:0.5 4:1 
-3.667347203649659 -0 0 1:0.311631 3:0.5 4:1 
-8 -0 0 1:0.324067 2:0.2 3:0.2 4:0.04 
-1.399720290054154 -0 0 1:0.329188 3:0.5 4:0.69 
-8 -0 0 1:0.308834 3:0.5 4:0.04 
-8 -0 0 1:0.24126 2:0.3 3:0.5 4:0.04 
-0.003887764391174716 -0 0 1:0.323077 3:0.5 4:1 
-8 -0 0 1:0.507692 3:0.5 4:0.42 
-5.914664565416695 -0 0 1:0.653846 3:0.5 4:1 
-8 -0 0 1:0.7 3:0.5 4:0.51 
-8 -0 0 1:0.823077 3:0.5 4:0.37 
-0.1968907212578034 -0 0 1:0.930769 3:0.5 4:1 
-8 -0 0 1:1 3:0.5 4:0.15 
-8 -0 0 1:0.410783 3:0.5 4:1 
-8 -0 0 1:0.417202 3:0.5 4:0.34 
-8 -0 0 1:0.422336 3:0.5 4:0.46 
-8 -0 0 1:0.427471 3:0.5 4:1 
-8 -0 0 1:0.442875 3:0.5 4:0.06 
-8 -0 0 1:0.446727 3:0.5 4:0.14 
-8 -0 0 1:0.450578 3:0.5 4:0.72 
-8 -0 0 1:0.465982 3:0.5 4:0.04 
-8 -0 0 1:0.468549 3:0.5 4:0.06 
-8 -0 0 1:0.472401 3:0.5 4:0.17 
-8 -0 0 1:0.478819 3:0.5 4:0.15 
-8 -0 0 1:0.48267 3:0.5 4:0.41 
-8 -0 0 1:0.500642 3:0.5 4:0.14 
-8 -0 0 1:0.504493 3:0.5 4:0.4 
-0.7273581063419012 -0 0 1:0.51733 3:0.5 4:0.83 
-8 -0 0 1:0.521181 3:0.5 4:0.06 
-8 -0 0 1:0.656863 2:0.5 3:0.5 4:0.39 
-8 -0 0 1:0.745098 3:0.5 4:0.73 
-8 -0 0 1:0.784314 3:0.5 4:0.51 
-8 -0 0 1:0.823529 3:0.5 4:0.6 
-8 -0 0 1:0.843396 3:0.5 4:0.1 
-8 -0 0 1:0.850943 3:0.5 4:0.02 
-8 -0 0 1:0.854717 3:0.5 4:0.1 
-8 -0 0 1:0.866038 3:0.5 4:0.02 
-8 -0 0 1:0.869811 3:0.5 4:0.1 
-8 -0 0 1:0.873585 3:0.5 4:0.57 
-8 -0 0 1:0.884906 3:0.5 4:0.05 
-8 -0 0 1:0.888679 3:0.5 4:0.11 
-8 -0 0 1:0.892453 3:0.5 4:0.3 
-8 -0 0 1:0.907547 3:0.5 4:0.13 
-8 -0 0 1:0.918868 3:0.5 4:0.16 
-8 -0 0 1:0.926415 3:0.5 4:0.51 
-8 -0 0 1:0.930189 3:0.5 4:0.04 
-8 -0 0 1:0.933962 3:0.5 4:1 
-8 -0.2578040089993154 0 1:0.941509 3:0.5 4:1 
-8 -0 0 1:0.297641 3:0.5 4:0.18 
-7.463084965342635 -0 0 1:0.315789 3:0.5 4:1 
-8 -0 0 1:0.321234 3:0.5 4:0.2 
-8 -0 0 1:0.353902 3:0.5 4:0.19 
-8 -0 0 1:0.361162 3:0.5 4:0.2 
-8 -0 0 1:0.399274 3:0.5 4:0.26 
-8 -0 0 1:0.232415 3:0.4 
-8 -7.511337311579187 0 1:0.655462 2:0.3 3:0.5 4:0.36 
-4.367993448172933 -0 0 1:0.678571 3:0.5 4:1 
-8 -0 0 1:0.298714 3:0.5 4:0.15 
-8 -0 0 1:0.301682 3:0.5 4:0.02 
-8 -0 0 1:0.304649 3:0.5 4:0.16 
-8 -0 0 1:0.312562 3:0.5 4:1 
-8 -7.178063692778458 0 1:0.748487 3:0.5 4:0.17 
-8 -6.345703573469607 0 1:0.755402 2:0.7 3:0.5 4:0.24 
-8 -0 -8 1:0.271696 3:0.5 4:0.04 
-8 -2.262371593123118 -8 1:0.271696 3:0.5 4:0.04 
