svm_type c_svc
kernel_type rbf
gamma 8
nr_class 4
total_sv 373
rho -41.043 -39.5409 -157.483 0.519089 -0.651286 -218.489
label 0 1 2 20
nr_sv 163 16 192 2
SV
0 32768 0 1:0.71319 2:0 3:0.5 4:0.42 
0 1008.171638043535 0 1:0.728528 2:0 3:0.5 4:0.85 
0 2.163213694975223 0 1:0.249649 2:0 3:0.2 4:0 
0 32768 0 1:0.381487 2:0 3:0.5 4:0.19 
0 32768 0 1:0.409537 2:0 3:0.5 4:1 
0 32768 0 1:0.426367 2:0 3:0.5 4:0.19 
0 32768 0 1:0.437588 2:0 3:0.5 4:0.3 
0 32768 0 1:0.454418 2:0 3:0.5 4:0.19 
0 32768 0 1:0.499299 2:0 3:0.5 4:0.19 
0 19031.0042344625 0 1:0.520337 2:0 3:0.5 4:0.19 
0 32768 0 1:0.538569 2:0 3:0.5 4:0.19 
0 32768 0 1:0.565217 2:0 3:0.5 4:0.19 
0 32768 0 1:0.56662 2:0 3:0.5 4:0.25 
0 32768 0 1:0.593268 2:0 3:0.5 4:0.19 
0 32768 0 1:0.59467 2:0 3:0.5 4:0.27 
12428.37990596206 0 0 1:0.082168 2:0.5 3:0.5 4:0.14 
0 3941.505047667567 0 1:0.267483 2:0.3 3:0.5 4:0.8 
0 32768 0 1:0.443536 2:0 3:0.5 4:0.08 
0 32768 0 1:0.444279 2:0 3:0.5 4:0.09 
3482.286160669899 0 0 1:0.011583 2:0.8 3:0.5 4:0.21 
0 1099.790097638662 0 1:0.138996 2:0.3 3:0.5 4:0.07 
1.923484646032173 0 0 1:0.027083 2:0.3 3:0.5 4:0.17 
676.6464869714492 0 0 1:0.029167 2:0.5 3:0.5 4:0.17 
0 2738.34221510042 0 1:0.195833 2:0.5 3:0.5 4:0.11 
0 2270.992012234195 0 1:0.540541 2:0.3 3:0.5 4:0.19 
0 20862.3311269824 0 1:0.558559 2:0.3 3:0.5 4:0.1 
0 32768 0 1:0.260234 2:0 3:0.5 4:1 
0 8924.309767716484 0 1:0.476727 2:0 3:0.5 4:0.03 
0 32768 0 1:0.483483 2:0 3:0.5 4:0.04 
0 32768 0 1:0.506006 2:0 3:0.5 4:0.09 
0 32768 0 1:0.593878 2:0 3:0.5 4:0.72 
0 32768 0 1:0.145078 2:0.5 3:0.5 4:0.12 
0 32768 28560.59464124323 1:0.282148 2:0 3:0.5 4:0.05 
0 32768 0 1:0.283561 2:0 3:0.5 4:0.05 
0 32768 8609.849132910749 1:0.291098 2:0 3:0.5 4:0.04 
0 32768 0 1:0.292511 2:0 3:0.5 4:0.47 
0 32768 0 1:0.218794 2:0 3:0.5 4:0.03 
0 32768 0 1:0.228612 2:0 3:0.5 4:0.03 
0 32768 0 1:0.232819 2:0 3:0.5 4:0.03 
0 32768 0 1:0.242637 2:0 3:0.5 4:0.03 
0 120.6196865425729 0 1:0.740533 2:0.3 3:0 4:0.15 
0 5194.228550665615 0 1:0.948107 2:0 3:0.5 4:0.46 
0 960.4623551107148 0 1:0.175092 2:0.3 3:0.1 4:0.06 
0 32768 0 1:0.352651 2:0.3 3:0 4:0.15 
0 18345.72434226131 0 1:0.549322 2:0 3:0.5 4:0.23 
5994.110175869493 0 0 1:0.084071 2:0.5 3:0.5 4:0.2 
0 32720.76560657076 0 1:0.212144 2:0.3 3:0.5 4:0.14 
0 6471.76047780849 0 1:0.22468 2:0.3 3:0.5 4:0.09 
0 8312.355493716712 0 1:0.25 2:0.3 3:0.5 4:0.11 
0 32768 0 1:0.374385 2:0 3:0.5 4:0.08 
0 32768 0 1:0.420354 2:0 3:0.5 4:0.04 
0 32768 0 1:0.442478 2:0 3:0.5 4:0.43 
0 32768 0 1:0.471731 2:0 3:0.5 4:0.68 
0 32768 0 1:0.480088 2:0 3:0.5 4:0.67 
0 32768 0 1:0.484267 2:0 3:0.5 4:0.41 
0 32768 0 1:0.496804 2:0 3:0.5 4:0.42 
0 32768 0 1:0.51352 2:0 3:0.5 4:0.67 
0 32768 0 1:0.566618 2:0 3:0.5 4:0.09 
0 32768 0 1:0.298471 2:0 3:0.5 4:0.11 
0 32768 0 1:0.302141 2:0 3:0.5 4:0.09 
0.6915789102828978 0 0 1:0.348624 2:0.9 3:0.5 4:0.15 
0 32768 0 1:0.357187 2:0 3:0.5 4:0.19 
0 32768 0 1:0.365749 2:0 3:0.5 4:0.19 
0 32768 0 1:0.376758 2:0 3:0.5 4:0.19 
0 32768 0 1:0.389602 2:0 3:0.5 4:0.23 
0 32768 0 1:0.403058 2:0 3:0.5 4:0.19 
0 32768 0 1:0.424465 2:0 3:0.5 4:0.2 
0 25535.73121536848 0 1:0.435474 2:0 3:0.5 4:0.26 
0 32768 0 1:0.459939 2:0 3:0.5 4:0.19 
0 25653.08623415391 0 1:0.479511 2:0 3:0.5 4:0.19 
0 32768 0 1:0.546177 2:0 3:0.5 4:0.19 
0 32768 0 1:0.582875 2:0 3:0.5 4:0.19 
0 32768 0 1:0.325828 2:0 3:0.5 4:0.11 
0 32768 0 1:0.330464 2:0 3:0.5 4:0.11 
0 32768 0 1:0.358278 2:0 3:0.5 4:0.11 
0 32768 0 1:0.359603 2:0 3:0.5 4:0.08 
0 638.1807975800763 0 1:0.29506 2:0.3 3:0.5 4:0.75 
0 8611.779159058256 0 1:0.24794 2:0 3:0.5 4:0.01 
0 1030.129834872577 0 1:0.259925 2:0.7 3:0.5 4:0.48 
0 755.8816489228269 0 1:0.298876 2:0.3 3:0.1 4:0.03 
3.475845523193309 0 0 1:0.163364 2:0.9 3:0.5 4:0.04 
0 32768 0 1:0.743439 2:0 3:0.5 4:0.4 
0 18238.97706371432 0 1:0.768077 2:0 3:0.5 4:0.59 
0 19564.95592464811 0 1:0.728528 2:0 3:0.5 4:0.85 
0 14759.84273629275 0 1:0.671642 2:0 3:0.5 4:0 
0 3372.268900438279 0 1:0.716418 2:0 3:0.5 4:0 
0 179.0617623500614 0 1:0.249649 2:0 3:0.2 4:0 
0 32768 0 1:0.381487 2:0 3:0.5 4:0.19 
0 32768 0 1:0.398317 2:0 3:0.5 4:0.19 
0 32768 0 1:0.436185 2:0 3:0.5 4:0.19 
0 32768 0 1:0.454418 2:0 3:0.5 4:0.19 
0 32768 0 1:0.464236 2:0 3:0.5 4:0.19 
0 32768 0 1:0.499299 2:0 3:0.5 4:0.19 
0 32768 0 1:0.56662 2:0 3:0.5 4:0.25 
0 32768 0 1:0.593268 2:0 3:0.5 4:0.19 
0 2558.290584493582 0 1:0.604488 2:0 3:0.5 4:0.19 
0 652.1577052699693 0 1:0.258741 2:0.3 3:0.1 4:0.02 
0 32768 0 1:0.578671 2:0 3:0.5 4:0.33 
251.7091827369686 0 0 1:0.153716 2:0.7 3:0.5 4:0.19 
0 7548.922273531317 0 1:0.237741 2:0.3 3:0.5 4:0.14 
0 32768 0 1:0.443536 2:0 3:0.5 4:0.08 
0 32768 0 1:0.444279 2:0 3:0.5 4:0.09 
0 32768 0 1:0.491828 2:0 3:0.5 4:0.09 
1.057154036956551 0 0 1:0.583952 2:0.9 3:1 4:0.22 
5248.211163225893 0 0 1:0.00625 2:0.8 3:0.5 4:0.16 
0 15860.72103410307 0 1:0.172917 2:0.5 3:0.5 4:0.21 
0 650.9839534504904 0 1:0.540541 2:0.3 3:0.5 4:0.19 
0 2314.420811288784 0 1:0.558559 2:0.3 3:0.5 4:0.1 
0 32768 0 1:0.590083 2:0 3:0.5 4:0.23 
0 32768 0 1:0.260234 2:0 3:0.5 4:1 
0 20128.45232828421 0 1:0.476727 2:0 3:0.5 4:0.03 
0 3094.239093026538 0 1:0.842342 2:0 3:0.5 4:0.4 
0 32768 0 1:0.593878 2:0 3:0.5 4:0.72 
0 4284.226372778263 0 1:0.122939 2:0 3:0.5 4:0.19 
0 1295.225881005718 0 1:0.143194 2:0 3:0.5 4:0.03 
0 10197.29135050561 0 1:0.143665 2:0.5 3:0.5 4:0.06 
0 1790.789835146919 0 1:0.202544 2:0.3 3:0.5 4:0.7 
0 32768 0 1:0.243523 2:0.5 3:0.5 4:0.24 
0 32768 0 1:0.284974 2:0 3:0.5 4:0.05 
0 32768 0 1:0.299105 2:0 3:0.5 4:0.03 
0 5183.677250416162 0 1:0.746228 2:0 3:0.5 4:0.4 
0 32768 0 1:0.228612 2:0 3:0.5 4:0.03 
0 32768 0 1:0.232819 2:0 3:0.5 4:0.03 
0 32768 0 1:0.246844 2:0 3:0.5 4:0.03 
0 32768 28365.55622584603 1:0.255259 2:0 3:0.5 4:0.03 
0 2413.197599039931 0 1:0.175092 2:0.3 3:0.1 4:0.06 
0 10251.48972414559 0 1:0.212144 2:0.3 3:0.5 4:0.14 
0 32768 0 1:0.343412 2:0 3:0.5 4:0.03 
0 32768 0 1:0.375123 2:0 3:0.5 4:0.09 
0 32768 0 1:0.43412 2:0 3:0.5 4:0.67 
0 32768 0 1:0.438299 2:0 3:0.5 4:0.89 
0 32768 0 1:0.450836 2:0 3:0.5 4:0.38 
0 32768 0 1:0.459194 2:0 3:0.5 4:0.73 
0 32768 0 1:0.463373 2:0 3:0.5 4:0.52 
0 32768 0 1:0.47591 2:0 3:0.5 4:0.74 
0 32768 0 1:0.480088 2:0 3:0.5 4:0.67 
0 32768 0 1:0.500983 2:0 3:0.5 4:0.51 
0 32768 0 1:0.566618 2:0 3:0.5 4:0.09 
0 32768 0 1:0.110092 2:0.5 3:0.5 4:0.05 
0 2204.192703466195 0 1:0.110703 2:0.5 3:0.5 4:0.05 
0 32768 0 1:0.300306 2:0 3:0.5 4:0.08 
0 32768 0 1:0.302141 2:0 3:0.5 4:0.09 
11.90441081301311 0 0 1:0.348624 2:0.9 3:0.5 4:0.15 
0 32768 0 1:0.357187 2:0 3:0.5 4:0.19 
0 32768 0 1:0.365749 2:0 3:0.5 4:0.19 
0 32768 0 1:0.376758 2:0 3:0.5 4:0.19 
0 32768 0 1:0.387768 2:0 3:0.5 4:0.19 
0 32768 0 1:0.424465 2:0 3:0.5 4:0.2 
0 32768 0 1:0.433639 2:0 3:0.5 4:0.19 
0 32768 0 1:0.444648 2:0 3:0.5 4:0.19 
0 32768 0 1:0.459939 2:0 3:0.5 4:0.19 
0 2503.324696001325 0 1:0.479511 2:0 3:0.5 4:0.19 
0 32768 0 1:0.522324 2:0 3:0.5 4:0.19 
0 32768 0 1:0.582875 2:0 3:0.5 4:0.19 
0 32768 0 1:0.584709 2:0 3:0.5 4:1 
0 32768 0 1:0.359603 2:0 3:0.5 4:0.08 
0 164.2352669723196 0 1:0.29506 2:0.3 3:0.5 4:0.75 
0 286.2888592670739 0 1:0.448598 2:0.15 3:0.5 4:0.06 
0 32768 0 1:0.245693 2:0 3:0.5 4:0.01 
0 26153.65119814977 0 1:0.24794 2:0 3:0.5 4:0.01 
0 485.5773019492218 0 1:0.259925 2:0.7 3:0.5 4:0.48 
0 178.1028008464318 0 1:0.298876 2:0.3 3:0.1 4:0.03 
0 32768 0 1:0.743439 2:0 3:0.5 4:0.4 
-0.0007472860342456137 0 0 1:0.733607 2:1 3:1 4:0.18 
-0.3227099129076559 0 0 1:0.406389 2:1 3:0.5 4:0.23 
-122.9092541708904 0 0 1:0.081081 2:0.5 3:0.5 4:0.16 
-0.005958419421859495 0 0 1:0.140351 2:0.7 3:0.9 4:0.29 
-0.002231795541781757 0 0 1:0.47973 2:1 3:1 4:0.28 
-0.02207460042681873 0 0 1:0.180346 2:1 3:1 4:0.21 
-8870.1148232742 0 0 1:0.012295 2:0.8 3:0.5 4:0.18 
-38.1018674148872 1.345505628161164 0.3143307203760112 1:0.733607 2:1 3:1 4:0.18 
-34.60265160427582 1.588311772841892 0.1987379182599862 1:0.406389 2:1 3:0.5 4:0.23 
-18954.77002556599 36.79349840165649 0.4462939868489488 1:0.081081 2:0.5 3:0.5 4:0.16 
-0 1.051577767176796 0.02795019271592408 1:0.189583 2:1 3:0.5 4:0.11 
-0 0 0.1215062937383348 1:0.109091 2:1 3:0.5 4:0.22 
-30.31900167793827 0.7102792986837927 0.1231586250878863 1:0.140351 2:0.7 3:0.9 4:0.29 
-2.440851917627816 0 0 1:0.47973 2:1 3:1 4:0.28 
-36.64038707352481 1.343368910649215 0.2873772250459405 1:0.200188 2:1 3:1 4:0.67 
-10.14296465159837 0.6706932022112314 0.1726324222047053 1:0.180346 2:1 3:1 4:0.21 
-4747.282288887029 -0 0 1:0.552239 2:0.3 3:0.5 4:0.11 
-16187.45366025318 -0 0 1:0.820896 2:0 3:0.5 4:0.45 
-9382.900912265903 -0 0 1:0.741803 2:0 3:0.5 4:0.89 
-3.807539640336007 -0 0 1:0.199158 2:0 3:0.2 4:1 
-9281.295656800246 -0 0 1:0.310811 2:0 3:0.5 4:0.17 
-3488.893492279584 -0 0 1:0.351351 2:0.3 3:0 4:0.09 
-18.7759863116562 -0 0 1:0.448737 2:0 3:1 4:0.27 
-32768 -0 0 1:0.44948 2:0 3:0.5 4:0.27 
-32768 -0 0 1:0.450966 2:0 3:0.5 4:0.38 
-20928.58121002244 -0 0 1:0.451709 2:0 3:0.5 4:0.55 
-12842.46931926156 -0 0 1:0.096525 2:0.5 3:0.5 4:0.09 
-32768 -0 0 1:0.131274 2:0.5 3:0.5 4:0.07 
-32714.05398260341 -0 0 1:0.220833 2:0.5 3:0.5 4:0.23 
-32768 -0 0 1:0.33719 2:0 3:0.5 4:0.21 
-21036.31211799423 -0 0 1:0.370248 2:0.3 3:0 4:0.16 
-10432.23493271385 -0 0 1:0.327711 2:0 3:0.5 4:0.1 
-32768 -0 0 1:0.346988 2:0 3:0.5 4:0.11 
-15501.26254753355 -0 0 1:0.361446 2:0 3:0.5 4:1 
-32768 -0 0 1:0.366265 2:0 3:0.5 4:0.04 
-32768 -0 0 1:0.371084 2:0 3:0.5 4:0.05 
-32768 -0 0 1:0.387952 2:0 3:0.5 4:0.17 
-32768 -0 0 1:0.39759 2:0 3:0.5 4:0.15 
-31721.33210604365 -0 0 1:0.407229 2:0 3:0.5 4:0.12 
-9272.04462459378 -0 0 1:0.412048 2:0 3:0.5 4:0.5 
-32768 -0 0 1:0.416867 2:0 3:0.5 4:0.15 
-32768 -0 0 1:0.426506 2:0 3:0.5 4:0.13 
-32768 -0 0 1:0.431325 2:0 3:0.5 4:0.15 
-32768 -0 0 1:0.436145 2:0 3:0.5 4:0.47 
-32768 -0 0 1:0.440964 2:0 3:0.5 4:0.13 
-26014.31401280928 -0 0 1:0.455422 2:0 3:0.5 4:0.69 
-32768 -0 0 1:0.474699 2:0 3:0.5 4:0.19 
-32768 -0 0 1:0.503614 2:0 3:0.5 4:0.17 
-32768 -0 0 1:0.508434 2:0 3:0.5 4:0.27 
-32768 -0 0 1:0.513253 2:0 3:0.5 4:0.04 
-32768 -0 0 1:0.518072 2:0 3:0.5 4:0.13 
-32768 -0 0 1:0.522892 2:0 3:0.5 4:0.21 
-32768 -0 0 1:0.539759 2:0 3:0.5 4:0.19 
-13377.13987789809 -0 0 1:0.542169 2:0 3:0.5 4:0.06 
-90.26730909364744 -0 0 1:0.166667 2:0 3:0.2 4:0.04 
-32768 -0 0 1:0.342282 2:0 3:0.5 4:0.21 
-32768 -0 0 1:0.395973 2:0 3:0.5 4:0.25 
-11956.55028751943 -0 0 1:0.422819 2:0 3:0.5 4:0.94 
-30474.43258086473 -0 0 1:0.436242 2:0 3:0.5 4:0.75 
-16128.76270967913 -0 0 1:0.530781 2:0 3:0.5 4:0.81 
-10855.98717157186 -0 0 1:0.546547 2:0 3:0.5 4:1 
-2864.827584747821 -0 0 1:0.55102 2:0 3:0.5 4:0.11 
-17536.4181271964 -0 0 1:0.569388 2:0 3:0.5 4:1 
-32768 -0 0 1:0.218088 2:0.3 3:0.5 4:0.13 
-32768 -0 0 1:0.224211 2:0 3:0.5 4:0.04 
-444.406192722899 -0 0 1:0.227037 2:0 3:0.5 4:1 
-8872.15376339025 -0 0 1:0.229863 2:0 3:0.5 4:0.48 
-23978.71147229213 -0 0 1:0.231276 2:0 3:0.5 4:0.05 
-208.2278299389678 -0 0 1:0.469846 2:0.7 3:0.5 4:0.51 
-32768 -0 0 1:0.506311 2:0 3:0.5 4:0.65 
-32768 -0 0 1:0.510519 2:0 3:0.5 4:0.27 
-32768 -0 0 1:0.514727 2:0 3:0.5 4:0.2 
-32768 -0 0 1:0.523142 2:0 3:0.5 4:0.71 
-32768 -0 0 1:0.546985 2:0 3:0.5 4:0.2 
-32768 -0 0 1:0.600281 2:0 3:0.5 4:0.16 
-32768 -0 0 1:0.645161 2:0 3:0.5 4:0.29 
-32768 -0 0 1:0.649369 2:0 3:0.5 4:0.32 
-30095.26694096543 -0 0 1:0.653576 2:0 3:0.5 4:0.51 
-4274.333903229639 -0 0 1:0.657784 2:0 3:0.5 4:0.46 
-4902.604487884665 -0 0 1:0.661992 2:0 3:0.5 4:0.34 
-8827.571443435108 -0 0 1:0.670407 2:0 3:0.5 4:0.02 
-16683.64522034963 -0 0 1:0.674614 2:0 3:0.5 4:0.72 
-3285.390520441264 -0 0 1:0.25349 2:0.3 3:0.5 4:0.75 
-0 -0 63.60079621744653 1:0.255165 2:0 3:0.5 4:0.08 
-134.8661725010497 -0 0 1:0.278615 2:0.3 3:0.5 4:0.93 
-0.722212026939449 -0 0 1:0.320491 2:0 3:0 4:0.08 
-289.7104950567152 -0 0 1:0.21455 2:0.7 3:0.5 4:0.46 
-32768 -0 0 1:0.22688 2:0 3:0.5 4:0.02 
-32768 -0 0 1:0.241677 2:0 3:0.5 4:0.04 
-32768 -0 0 1:0.247226 2:0 3:0.5 4:0.04 
-1543.277130950457 -0 0 1:0.250925 2:0 3:0.5 4:1 
-32768 -0 3435.669096485965 1:0.262022 2:0 3:0.5 4:0.03 
-32768 -0 126.238087875326 1:0.293465 2:0 3:0.5 4:0.05 
-32768 -0 0 1:0.31566 2:0 3:0.5 4:0.02 
-32768 -0 0 1:0.380039 2:0 3:0.5 4:0.13 
-32768 -0 0 1:0.381514 2:0 3:0.5 4:0.19 
-32768 -0 0 1:0.387906 2:0 3:0.5 4:0.16 
-7.972143049533931 -0 0 1:0.259939 2:0 3:0.2 4:1 
-12.59013856913292 -0 0 1:0.269113 2:0.7 3:0 4:0.15 
-32768 -0 0 1:0.284768 2:0 3:0.5 4:0.03 
-25.4639977395968 -0 0 1:0.468212 2:0.7 3:0 4:0.14 
-124.4530145403962 -0 0 1:0.230307 2:0.7 3:0.5 4:0.57 
-261.4241903408291 -0 0 1:0.267023 2:0.2 3:0.2 4:0.01 
-3930.715974629939 -0 0 1:0.299065 2:0.3 3:0 4:0.16 
-3497.824439885117 -0 0 1:0.211985 2:0.3 3:0.1 4:0.06 
-1597.667196265229 -0 0 1:0.313109 2:0.3 3:0 4:0.1 
-1.153775857523267 -0 0 1:0.239957 2:0 3:0.5 4:1 
-0 -0 5189.025934552246 1:0.245399 2:0 3:0.5 4:0.06 
-0 -0.3082853252377943 0 1:0.246933 2:0 3:0 4:0.07 
-22043.29366110266 -0 0 1:0.552239 2:0.3 3:0.5 4:0.11 
-0 -0.3750943115321063 0 1:0.776119 2:0 3:0.5 4:1 
-32768 -0 0 1:0.820896 2:0 3:0.5 4:0.45 
-0 -0.3515751515307676 0 1:0.850746 2:0 3:0.5 4:0.51 
-5793.873902361488 -0 0 1:0.741803 2:0 3:0.5 4:0.89 
-11.69606000862977 -0.1394246892393057 0 1:0.199158 2:0 3:0.2 4:1 
-0 -0.05007741407174184 0 1:0.200561 2:0 3:0.2 4:0.72 
-0 -0.1587348692897833 0 1:0.234222 2:0 3:0.2 4:0.54 
-0 -0.2649460478297998 0 1:0.26648 2:0.7 3:0 4:0.16 
-9048.338313438426 -0 0 1:0.310811 2:0 3:0.5 4:0.17 
-179.2195929229266 -0 0 1:0.351351 2:0.3 3:0 4:0.09 
-19.36663540481844 -0.382368198776979 0 1:0.448737 2:0 3:1 4:0.27 
-32768 -0 0 1:0.44948 2:0 3:0.5 4:0.27 
-32768 -0 0 1:0.450966 2:0 3:0.5 4:0.38 
-31505.30904761031 -0 0 1:0.451709 2:0 3:0.5 4:0.55 
-731.0972482096355 -30.18338899596379 0 1:0.096525 2:0.5 3:0.5 4:0.09 
-0 -0.2561220696789542 0 1:0.104247 2:0 3:0.5 4:1 
-29544.14255240028 -0 0 1:0.131274 2:0.5 3:0.5 4:0.07 
-20719.59119504729 -6.991318205991877 0 1:0.220833 2:0.5 3:0.5 4:0.23 
-32768 -0 0 1:0.33719 2:0 3:0.5 4:0.21 
-823.8324828838859 -0 0 1:0.370248 2:0.3 3:0 4:0.16 
-16021.10940369507 -0 0 1:0.327711 2:0 3:0.5 4:0.1 
-32768 -0 0 1:0.346988 2:0 3:0.5 4:0.11 
-32768 -0 0 1:0.366265 2:0 3:0.5 4:0.04 
-32768 -0 0 1:0.371084 2:0 3:0.5 4:0.05 
-32768 -0 0 1:0.387952 2:0 3:0.5 4:0.17 
-32768 -0 0 1:0.39759 2:0 3:0.5 4:0.15 
-32768 -0 0 1:0.407229 2:0 3:0.5 4:0.12 
-1079.806833776118 -0 0 1:0.412048 2:0 3:0.5 4:0.5 
-32768 -0 0 1:0.416867 2:0 3:0.5 4:0.15 
-32768 -0 0 1:0.426506 2:0 3:0.5 4:0.13 
-32768 -0 0 1:0.431325 2:0 3:0.5 4:0.15 
-32768 -0 0 1:0.436145 2:0 3:0.5 4:0.47 
-32768 -0 0 1:0.440964 2:0 3:0.5 4:0.13 
-32768 -0 0 1:0.455422 2:0 3:0.5 4:0.69 
-32768 -0 0 1:0.474699 2:0 3:0.5 4:0.19 
-32768 -0 0 1:0.503614 2:0 3:0.5 4:0.17 
-32768 -0 0 1:0.508434 2:0 3:0.5 4:0.27 
-32768 -0 0 1:0.513253 2:0 3:0.5 4:0.04 
-32768 -0 0 1:0.518072 2:0 3:0.5 4:0.13 
-32768 -0 0 1:0.522892 2:0 3:0.5 4:0.21 
-32768 -0 0 1:0.539759 2:0 3:0.5 4:0.19 
-28049.69810577009 -0 0 1:0.542169 2:0 3:0.5 4:0.06 
-0 -0.6237655777850213 0 1:0.184211 2:0 3:0.5 4:0.32 
-32768 -0 0 1:0.342282 2:0 3:0.5 4:0.21 
-32768 -0 0 1:0.395973 2:0 3:0.5 4:0.25 
-8565.964052221898 -0 0 1:0.422819 2:0 3:0.5 4:0.94 
-21602.86173254022 -0 0 1:0.436242 2:0 3:0.5 4:0.75 
-8991.386298434043 -0 0 1:0.530781 2:0 3:0.5 4:0.81 
-11082.74539156401 -0 0 1:0.546547 2:0 3:0.5 4:1 
-32768 -0 0 1:0.55102 2:0 3:0.5 4:0.11 
-19.59766030330207 -0 0 1:0.569388 2:0 3:0.5 4:1 
-0 -0.2677208531671163 0 1:0.657143 2:0.3 3:0 4:0.17 
-32768 -0 0 1:0.218088 2:0.3 3:0.5 4:0.13 
-32768 -0 0 1:0.224211 2:0 3:0.5 4:0.04 
-11039.64114320305 -0 0 1:0.227037 2:0 3:0.5 4:1 
-4301.572972504128 -0 0 1:0.229863 2:0 3:0.5 4:0.48 
-32767.28250033855 -0 0 1:0.231276 2:0 3:0.5 4:0.05 
-194.0901949617619 -0 0 1:0.469846 2:0.7 3:0.5 4:0.51 
-0 -0.04419404435871841 0 1:0.502104 2:0 3:0.5 4:1 
-32768 -0 0 1:0.506311 2:0 3:0.5 4:0.65 
-32768 -0 0 1:0.510519 2:0 3:0.5 4:0.27 
-32768 -0 0 1:0.514727 2:0 3:0.5 4:0.2 
-32768 -0 0 1:0.523142 2:0 3:0.5 4:0.71 
-6874.039877702775 -0 0 1:0.534362 2:0 3:0.5 4:0.71 
-32768 -0 0 1:0.546985 2:0 3:0.5 4:0.2 
-32768 -0 0 1:0.600281 2:0 3:0.5 4:0.16 
-32768 -0 0 1:0.645161 2:0 3:0.5 4:0.29 
-32768 -0 0 1:0.649369 2:0 3:0.5 4:0.32 
-5574.546010965531 -0 0 1:0.653576 2:0 3:0.5 4:0.51 
-4967.988458649533 -0 0 1:0.657784 2:0 3:0.5 4:0.46 
-12950.85206541754 -0 0 1:0.661992 2:0 3:0.5 4:0.34 
-12489.38339244933 -0.1967568684061375 0 1:0.670407 2:0 3:0.5 4:0.02 
-17540.15090396638 -0 0 1:0.674614 2:0 3:0.5 4:0.72 
-2544.114870486574 -0 0 1:0.25349 2:0.3 3:0.5 4:0.75 
-0 -0 802.0821055916623 1:0.255165 2:0 3:0.5 4:0.08 
-587.3926616176806 -0.1524873793882797 0 1:0.278615 2:0.3 3:0.5 4:0.93 
-29425.04961213561 -0 0 1:0.313791 2:0 3:0.5 4:1 
-30.01724198525138 -0 0 1:0.320491 2:0 3:0 4:0.08 
-637.462293461026 -2.649937026527931 0 1:0.21455 2:0.7 3:0.5 4:0.46 
-32768 -0 0 1:0.22688 2:0 3:0.5 4:0.02 
-32768 -0 0 1:0.241677 2:0 3:0.5 4:0.04 
-32768 -0 0 1:0.247226 2:0 3:0.5 4:0.04 
-28260.3594436798 -0 0 1:0.250925 2:0 3:0.5 4:1 
-32768 -0 32768 1:0.262022 2:0 3:0.5 4:0.03 
-32768 -0 22526.32070852975 1:0.293465 2:0 3:0.5 4:0.05 
-32768 -0 0 1:0.31566 2:0 3:0.5 4:0.02 
-32768 -0 0 1:0.380039 2:0 3:0.5 4:0.13 
-32768 -0 0 1:0.381514 2:0 3:0.5 4:0.19 
-32768 -0 0 1:0.387906 2:0 3:0.5 4:0.16 
-2.774936732197179 -0.1070379526044887 0 1:0.259939 2:0 3:0.2 4:1 
-20.30203721273792 -0 0 1:0.269113 2:0.7 3:0 4:0.15 
-32768 -0 625.063270747611 1:0.284768 2:0 3:0.5 4:0.03 
-91.73814845251182 -0 0 1:0.230307 2:0.7 3:0.5 4:0.57 
-6.796527757344816 -0 0 1:0.267023 2:0.2 3:0.2 4:0.01 
-1733.726039294325 -0 0 1:0.299065 2:0.3 3:0 4:0.16 
-969.3492304736254 -0 0 1:0.211985 2:0.3 3:0.1 4:0.06 
-491.4099447087804 -0 0 1:0.313109 2:0.3 3:0 4:0.1 
-105.3563942576273 -0 0 1:0.239957 2:0 3:0.5 4:1 
-32768 -0 -32768 1:0.271696 2:0 3:0.5 4:0.04 
-32768 -1.691987384277737 -32768 1:0.271696 2:0 3:0.5 4:0.04 
