svm_type c_svc
kernel_type rbf
gamma 8
nr_class 4
total_sv 620
rho -0.74793 -0.73024 -1.03386 0.489274 -0.840071 -1.03944
label 0 1 2 20
nr_sv 326 30 263 1
SV
0 8 0 1:0.71319 2:0 3:0.5 4:0.42 
0 8 0 1:0.728528 2:0 3:0.5 4:0.85 
0 8 0 1:0.759202 2:0 3:0.5 4:0.4 
0 1.559584904769732 0 1:0.828221 2:0.7 3:0.5 4:0.17 
8 0 0 1:0.059701 2:0.8 3:0.5 4:0.26 
0 8 0 1:1 2:0 3:0.5 4:0.31 
1.742369815065826 5.477256544910674 0 1:0.659836 2:0.3 3:0.5 4:0.2 
0 0.3623307619212666 0 1:1 2:0 3:0.5 4:0.32 
0 6.700495508513906 0 1:0.210379 2:0 3:0.2 4:0 
0 8 0 1:0.218794 2:0 3:0.2 4:0 
0 8 0 1:0.228612 2:0 3:0.2 4:0 
0 8 0 1:0.245442 2:0 3:0.2 4:0 
0.03735719839785635 8 0 1:0.249649 2:0 3:0.2 4:0 
0 8 0 1:0.295933 2:0 3:0.5 4:0.11 
0 8 0.1042889751517875 1:0.297335 2:0 3:0.5 4:0.08 
0 8 0 1:0.298738 2:0 3:0.5 4:0.09 
0 8 0 1:0.381487 2:0 3:0.5 4:0.19 
0 8 0 1:0.398317 2:0 3:0.5 4:0.19 
0 8 0 1:0.408135 2:0 3:0.5 4:0.19 
0 8 0 1:0.409537 2:0 3:0.5 4:1 
0 8 0 1:0.426367 2:0 3:0.5 4:0.19 
0 8 0 1:0.436185 2:0 3:0.5 4:0.19 
0 8 0 1:0.437588 2:0 3:0.5 4:0.3 
0 8 0 1:0.454418 2:0 3:0.5 4:0.19 
0 8 0 1:0.464236 2:0 3:0.5 4:0.19 
2.346440211298074 0 0 1:0.649369 2:0.9 3:0.5 4:0.17 
0.1041659963111202 0 0 1:0.932679 2:0 3:0.2 4:0 
5.34681049282559 0 0 1:0.082168 2:0.5 3:0.5 4:0.14 
0 1.677177960077952 0 1:0.167832 2:0.3 3:0.1 4:0.05 
0 8 0 1:0.25 2:0.3 3:0.5 4:0.48 
0 1.08108448397651 0 1:0.251748 2:0.3 3:0.5 4:0.15 
0 6.057102188349416 0 1:0.258741 2:0.3 3:0.1 4:0.02 
0 2.602122203879112 0 1:0.262238 2:0.3 3:0.5 4:0.48 
0 8 0 1:0.267483 2:0.3 3:0.5 4:0.8 
0 1.001510622546757 0 1:0.447552 2:0.15 3:0.5 4:0.05 
0 8 0 1:0.578671 2:0 3:0.5 4:0.33 
0.04131767145672949 0 0 1:0.018581 2:0.5 3:0.5 4:0.01 
0 8 0 1:0.209459 2:0.7 3:0.5 4:0.46 
0 8 0 1:0.459459 2:0 3:0.5 4:0.21 
0 8 0 1:0.467905 2:0 3:0.5 4:0.23 
0 8 0 1:0.540541 2:0 3:0.5 4:0.34 
0 8 0 1:0.237741 2:0.3 3:0.5 4:0.14 
0 0.9751110431566282 0 1:0.287519 2:0.3 3:0.5 4:0.11 
0 8 0 1:0.443536 2:0 3:0.5 4:0.08 
0 8 0 1:0.444279 2:0 3:0.5 4:0.09 
0 0.1577328547613636 0 1:0.461367 2:0.3 3:1 4:0.04 
0 8 0 1:0.491085 2:0 3:0.5 4:0.08 
0 8 0 1:0.491828 2:0 3:0.5 4:0.09 
0 8 0 1:0.509658 2:0.7 3:0.5 4:0.42 
8 0 0 1:0.55052 2:0.9 3:1 4:0.23 
0 0.02072634600824953 0 1:0.580238 2:0.9 3:1 4:0.04 
0 0.00505337283606706 0 1:0.612927 2:0.9 3:1 4:0.04 
8 0.05775225776890371 0 1:0.614413 2:0.9 3:1 4:0.27 
0 0.03602529552380571 0 1:0.627786 2:0.9 3:1 4:0.04 
0 0.01120177117122964 0 1:0.638187 2:0.9 3:1 4:0.04 
8 0 0 1:0.65156 2:0.9 3:0.5 4:0.11 
1.30585075024039 0 0 1:0.673105 2:0.9 3:0.5 4:0.1 
0 3.616272463021414 0 1:0.889302 2:0 3:0.5 4:0.11 
0 0.1499881856301768 0 1:0.964339 2:0.9 3:1 4:0.03 
8 0 0 1:0.011583 2:0.8 3:0.5 4:0.21 
0 0.7179643144205605 0 1:0.088803 2:0.5 3:0.5 4:0.25 
6.49380574627454 0 0 1:0.00625 2:0.8 3:0.5 4:0.16 
3.303470517359219 0.8607450045960502 0 1:0.027027 2:0.8 3:0.5 4:0.61 
2.880177625621661 0 0 1:0.261261 2:0.3 3:0.5 4:0.38 
8 0 0 1:0.540541 2:0.3 3:0.5 4:0.19 
0 4.823108275028245 0 1:0.558559 2:0.3 3:0.5 4:0.1 
0 8 0.14269534370904 1:0.28595 2:0 3:0.5 4:0.06 
0 0 0.0773468450725847 1:0.307438 2:0 3:0.5 4:0 
0 0.2341537109660438 0 1:0.509091 2:0.3 3:0.5 4:0.08 
2.818561509007655 0 0 1:0.026506 2:1 3:0.5 4:0.04 
0.6180770466739417 0 0 1:0.040964 2:0.7 3:0.5 4:0.02 
0 2.911658547028755 0 1:0.980723 2:0 3:0.5 4:0 
0.005876322879209767 0.7080296232926805 0 1:0.032164 2:0.7 3:0.5 4:0.01 
0.06671669618760286 0 0 1:0.067251 2:0.5 3:0.5 4:0.1 
0.704684685864898 0 0 1:0.073099 2:0.5 3:0.5 4:0.11 
1.491920938244489 0 0 1:0.076023 2:0.5 3:0.5 4:0.12 
4.256432406513133 0 0 1:0.146199 2:0.3 3:0.5 4:0.24 
0 1.230746862845927 0 1:0.149123 2:0.5 3:0.5 4:0.24 
0.3882273505658076 8 0 1:0.260234 2:0 3:0.5 4:1 
8 0 0 1:0.330409 2:1 3:0.5 4:0.04 
0 3.805712800824345 0 1:0.821637 2:0.7 3:0.5 4:0.28 
0 0.6038396441519431 0 1:0.060403 2:0.8 3:0.5 4:0.49 
1.35018998054376 0 0 1:0.281879 2:0.3 3:0.5 4:0.27 
3.430226108675511 0 0 1:0.010511 2:0.8 3:0.5 4:0.47 
0 8 0 1:0.476727 2:0 3:0.5 4:0.03 
0 8 0 1:0.483483 2:0 3:0.5 4:0.04 
0 8 0 1:0.485736 2:0 3:0.5 4:0.24 
0 8 0 1:0.506006 2:0 3:0.5 4:0.09 
0.5469477910320566 6.672679724453619 0 1:0.552553 2:0.3 3:0.5 4:0.35 
0 1.359146450151746 0 1:0.666667 2:0.5 3:0.5 4:0.28 
0 0.2666219221052255 0 1:0.677928 2:0.5 3:0.5 4:0.28 
0.1929639706649694 0.1101121306329261 0 1:0.993243 2:0.7 3:0.5 4:1 
0 0.6027736803968367 0 1:1 2:0 3:0.5 4:0.21 
0 8 0 1:0.593878 2:0 3:0.5 4:0.72 
0 8 0 1:0.671429 2:0 3:0.5 4:0.09 
0.3168904344274497 8 0 1:0.122939 2:0 3:0.5 4:0.19 
0 6.077770151724749 0 1:0.143194 2:0 3:0.5 4:0.03 
0 8 0 1:0.144607 2:0 3:0.5 4:0.03 
0.2758994513860779 8 0 1:0.202544 2:0.3 3:0.5 4:0.7 
0 8 0 1:0.235045 2:0 3:0.5 4:0.15 
0 8 0.5052678089438637 1:0.282148 2:0 3:0.5 4:0.05 
0 8 0 1:0.283561 2:0 3:0.5 4:0.05 
0 8 0 1:0.284974 2:0 3:0.5 4:0.05 
0 8 0.1095610759317191 1:0.291098 2:0 3:0.5 4:0.04 
8 8 0 1:0.292511 2:0 3:0.5 4:0.47 
0 8 0.1386702635131045 1:0.294395 2:0 3:0.5 4:0.04 
0 8 1.380490611218597 1:0.299105 2:0 3:0.5 4:0.03 
0 8 0 1:0.746228 2:0 3:0.5 4:0.4 
0.04869222021338276 0 0 1:0.758621 2:0 3:0.5 4:0.33 
0 8 0 1:0.771013 2:0 3:0.5 4:0.59 
0 8 0 1:0.218794 2:0 3:0.5 4:0.03 
0 8 0 1:0.228612 2:0 3:0.5 4:0.03 
0 8 0 1:0.232819 2:0 3:0.5 4:0.03 
0 8 0 1:0.242637 2:0 3:0.5 4:0.03 
0 8 0 1:0.246844 2:0 3:0.5 4:0.03 
0 8 0 1:0.251052 2:0 3:0.5 4:0.03 
0 8 0 1:0.255259 2:0 3:0.5 4:0.03 
0 3.062949433293334 0 1:0.697055 2:0.3 3:0.5 4:0.46 
0 0.3311113154063646 0 1:0.732118 2:0.3 3:0.5 4:0.8 
0.158893505171255 4.857021459978702 0 1:0.740533 2:0.3 3:0 4:0.15 
0 2.452826780327237 0 1:0.943899 2:0 3:0.5 4:0.1 
2.612866045853628 0 0 1:0.160246 2:0.9 3:0.5 4:0.04 
0 8 0 1:0.745952 2:0 3:0.5 4:0.4 
0.5459345767531998 0 0 1:0.758794 2:0 3:0.5 4:0.33 
0 8 0 1:0.771636 2:0 3:0.5 4:0.59 
0 0.008155932137487566 0 1:0.782245 2:0.9 3:0.5 4:0.12 
0.07274597940290234 0 0 1:0.840871 2:0.5 3:0.5 4:1 
0 0.211495156564682 0 1:0.856505 2:0.5 3:0.5 4:1 
0 8 0 1:0.175092 2:0.3 3:0.1 4:0.06 
0 8 0 1:0.340937 2:0.3 3:0.1 4:0.03 
0.08680697493288005 8 0 1:0.352651 2:0.3 3:0 4:0.15 
0.8034898853652521 0 0 1:0.205261 2:0.5 3:1 4:0.02 
0 8 0 1:0.342675 2:0 3:0.5 4:0.03 
0 8 0 1:0.343412 2:0 3:0.5 4:0.03 
0 8 0 1:0.374385 2:0 3:0.5 4:0.08 
0 8 0 1:0.375123 2:0 3:0.5 4:0.09 
0 8 0 1:0.420354 2:0 3:0.5 4:0.04 
0 8 0 1:0.43412 2:0 3:0.5 4:0.67 
0 8 0 1:0.438299 2:0 3:0.5 4:0.89 
0 8 0 1:0.442478 2:0 3:0.5 4:0.43 
0 8 0 1:0.446657 2:0 3:0.5 4:0.56 
0 8 0 1:0.450836 2:0 3:0.5 4:0.38 
0 8 0 1:0.455015 2:0 3:0.5 4:0.8 
0 8 0 1:0.459194 2:0 3:0.5 4:0.73 
0 8 0 1:0.463373 2:0 3:0.5 4:0.52 
0 8 0 1:0.467552 2:0 3:0.5 4:0.23 
0 8 0 1:0.471731 2:0 3:0.5 4:0.68 
0 8 0 1:0.47591 2:0 3:0.5 4:0.74 
0 8 0 1:0.480088 2:0 3:0.5 4:0.67 
0 8 0 1:0.484267 2:0 3:0.5 4:0.41 
0 8 0 1:0.488446 2:0 3:0.5 4:0.44 
0 8 0 1:0.492625 2:0 3:0.5 4:0.61 
0 8 0 1:0.496804 2:0 3:0.5 4:0.42 
0 8 0 1:0.500983 2:0 3:0.5 4:0.51 
0 8 0 1:0.505162 2:0 3:0.5 4:0.76 
0 8 0 1:0.509341 2:0 3:0.5 4:0.61 
0 8 0 1:0.51352 2:0 3:0.5 4:0.67 
0 8 0 1:0.517699 2:0 3:0.5 4:0.29 
0 8 0 1:0.544494 2:0.3 3:0 4:0.15 
0 0.3958903860619082 0 1:0.546214 2:0.3 3:1 4:0.04 
0 0.9308087094290964 0 1:0.583825 2:0.7 3:0.5 4:0.42 
4.34119424542774 0 0 1:0.646264 2:0.9 3:1 4:0.23 
2.31399687851432 0 0 1:0.660767 2:0.9 3:0.5 4:0.1 
0.9898139835610158 0 0 1:0.781711 2:0.9 3:1 4:0.04 
0 0.6363324196475251 0 1:0.785152 2:0.9 3:0.5 4:0.1 
0 8 0 1:0.897493 2:0 3:0.5 4:0.11 
1.089204894669099 0 0 1:0.956735 2:0.9 3:1 4:0.03 
0 2.878833537101966 0 1:0.973697 2:0 3:0.5 4:0 
0 8 0 1:0.209174 2:0.3 3:0.1 4:0.04 
0 8 0 1:0.298471 2:0 3:0.5 4:0.11 
0 8 0.2666947428813233 1:0.300306 2:0 3:0.5 4:0.08 
0 8 0 1:0.302141 2:0 3:0.5 4:0.09 
4.600461395757888 0 0 1:0.348624 2:0.9 3:0.5 4:0.15 
0 8 0 1:0.357187 2:0 3:0.5 4:0.19 
8 0 0 1:0.363303 2:0.9 3:0.5 4:0.22 
0 8 0 1:0.365749 2:0 3:0.5 4:0.19 
0 8 0 1:0.367584 2:0 3:0.5 4:0.22 
2.408219349674516 0 0 1:0.374312 2:0.9 3:0.5 4:0.26 
0 8 0 1:0.376758 2:0 3:0.5 4:0.19 
0 8 0 1:0.378593 2:0 3:0.5 4:0.26 
0 8 0 1:0.387768 2:0 3:0.5 4:0.19 
0 8 0 1:0.389602 2:0 3:0.5 4:0.23 
0 8 0 1:0.403058 2:0 3:0.5 4:0.19 
0 8 0 1:0.411621 2:0 3:0.5 4:0.19 
0 8 0 1:0.413456 2:0 3:0.5 4:0.21 
0 8 0 1:0.42263 2:0 3:0.5 4:0.19 
0 8 0 1:0.424465 2:0 3:0.5 4:0.2 
0 8 0 1:0.433639 2:0 3:0.5 4:0.19 
0 8 0 1:0.435474 2:0 3:0.5 4:0.26 
0 8 0 1:0.444648 2:0 3:0.5 4:0.19 
0 8 0 1:0.446483 2:0 3:0.5 4:0.23 
0 8 0 1:0.459939 2:0 3:0.5 4:0.19 
0 8 0 1:0.468502 2:0 3:0.5 4:0.19 
0 8 0 1:0.470336 2:0 3:0.5 4:0.26 
0 2.746559667449761 0 1:0.491743 2:0 3:0.5 4:0.24 
0 8 0 1:0.524159 2:0 3:0.5 4:0.28 
0 8 0 1:0.584709 2:0 3:0.5 4:1 
2.613098754671194 0 0 1:0.733333 2:0.3 3:0.5 4:0.29 
0 7.851393155790055 0 1:0.154967 2:0.15 3:0.5 4:0.07 
0 8 0 1:0.325828 2:0 3:0.5 4:0.11 
0 8 0 1:0.330464 2:0 3:0.5 4:0.11 
0 8 0 1:0.358278 2:0 3:0.5 4:0.11 
0 8 0 1:0.359603 2:0 3:0.5 4:0.08 
0 8 0 1:0.360927 2:0 3:0.5 4:0.09 
0 0.2961476426832299 0 1:0.854967 2:0.3 3:1 4:0.23 
0 8 0 1:0.448598 2:0.15 3:0.5 4:0.06 
0 8 0 1:0.259925 2:0.7 3:0.5 4:0.48 
0 8 0 1:0.298876 2:0.3 3:0.1 4:0.03 
0 6.617999710719732 0 1:0.308614 2:0.3 3:0.5 4:0.8 
0 8 0 1:0.441199 2:0 3:0.5 4:0.22 
0 8 0 1:0.451685 2:0 3:0.5 4:0.23 
0 8 0 1:0.743439 2:0 3:0.5 4:0.4 
0 8 0 1:0.768077 2:0 3:0.5 4:0.59 
0 8 0 1:0.25508 2:0 3:0.5 4:0.04 
0 8 5.094365025561025 1:0.257219 2:0 3:0.5 4:0.04 
0 8 0 1:0.750802 2:0 3:0.5 4:0.4 
0.1800272335160777 0 0 1:0.763102 2:0 3:0.5 4:0.33 
0 8 0 1:0.775401 2:0 3:0.5 4:0.59 
0 0.04404610091983017 0 1:0.214499 2:0.7 3:0.5 4:0.33 
0 0.02423023734804125 0 1:0.272095 2:0.7 3:0.5 4:0.85 
0 8 0 1:0.406157 2:0 3:0.5 4:0.2 
0 8 0 1:0.408143 2:0 3:0.5 4:0.31 
0 8 0 1:0.437934 2:0 3:0.5 4:0.98 
0 5.056503334504007 0 1:0.482622 2:0.2 3:0.5 4:0.07 
0 1.192194682662481 0 1:0.070506 2:0 3:0.5 4:0.06 
0 6.665512438507729 0 1:0.214499 2:0.7 3:0.5 4:0.33 
8 0 0 1:0.264151 2:1 3:0.5 4:0.09 
0 2.287317221217656 0 1:0.272095 2:0.7 3:0.5 4:0.85 
0 8 0 1:0.285998 2:0 3:0.5 4:0.3 
0 8 0 1:0.287984 2:0 3:0.5 4:1 
0 8 0 1:0.28997 2:0 3:0.5 4:1 
0 8 0 1:0.291956 2:0 3:0.5 4:1 
0 8 0 1:0.293942 2:0 3:0.5 4:1 
0 8 0 1:0.295929 2:0 3:0.5 4:1 
0 8 0 1:0.337637 2:0 3:0.5 4:0.3 
0 8 0 1:0.339623 2:0 3:0.5 4:1 
0 8 0 1:0.341609 2:0 3:0.5 4:1 
0 8 0 1:0.343595 2:0 3:0.5 4:1 
0 8 0 1:0.345581 2:0 3:0.5 4:1 
0 8 0 1:0.347567 2:0 3:0.5 4:1 
0 8 0 1:0.406157 2:0 3:0.5 4:0.2 
0 8 0 1:0.408143 2:0 3:0.5 4:0.31 
0 8 0 1:0.437934 2:0 3:0.5 4:0.98 
0 3.663825446520873 0 1:0.482622 2:0.2 3:0.5 4:0.07 
0 8 0 1:0.263957 2:0 3:0.5 4:0.13 
0 8 0 1:0.780099 2:0 3:0.5 4:0.59 
0 8 0 1:0.800608 2:0 3:0.5 4:0.57 
0 8 0 1:0.341624 2:0.2 3:0.2 4:0.19 
0 8 0 1:0.375274 2:0.3 3:0 4:0.15 
0 8 0 1:0.470373 2:0 3:0.5 4:0.06 
0.05367316978424894 6.579410671908929 0 1:0.546452 2:0.15 3:0.5 4:0.07 
0 8 0 1:0.433922 2:0 3:0.5 4:0.06 
0 2.221981207661732 0 1:0.504594 2:0.3 3:0.5 4:0.08 
0 2.921233741832607 0 1:0.247751 2:0.7 3:0.1 4:0.09 
0 8 0 1:0.253633 2:0 3:0.5 4:0.06 
0 8 0 1:0.724567 2:0 3:0.5 4:0.59 
0 8 0 1:0.743253 2:0 3:0.5 4:0.57 
0 8 0 1:0.745329 2:0 3:0.5 4:0.08 
0 8 0 1:0.249913 2:0 3:0.5 4:0.1 
0.09135232462432083 0 0 1:0.267913 2:0.5 3:0 4:0 
0.1202493755541859 0.1726901981970215 0 1:0.270682 2:0.7 3:1 4:0.04 
0 8 0 1:0.722395 2:0 3:0.5 4:0.59 
0 8 0 1:0.741087 2:0 3:0.5 4:0.57 
0 8 0 1:0.743164 2:0 3:0.5 4:0.08 
2.200963702967588 0 0 1:0.764971 2:0.5 3:1 4:0.18 
0 8 0 1:0.869231 2:0 3:0.5 4:1 
8 0 0 1:0.060334 2:1 3:0.5 4:0.04 
0.07157343681633183 0 0 1:0.409499 2:0.7 3:0.5 4:1 
1.214058243706965 0 0 1:0.630295 2:0.5 3:0.5 4:0.26 
0.2219976007841065 0 0 1:0.646983 2:0.9 3:0.5 4:0.11 
0 0.02548945428040475 0 1:0.655969 2:0.9 3:0.5 4:0.45 
0 3.737849184059368 0 1:0.657253 2:0.5 3:0.5 4:0.45 
0 3.219281251012886 0 1:0.675225 2:0.5 3:0.5 4:0.27 
0 8 0 1:0.931964 2:0 3:0.5 4:0.12 
0.2078679915659105 8 0 1:0.98973 2:0 3:0.5 4:1 
0 8 0 1:0.294118 2:0 3:0.5 4:0.46 
0 3.984769942818363 0 1:0.535948 2:0 3:0.5 4:0.02 
0 8 0 1:0.273585 2:0.2 3:0.5 4:0.13 
8 0 0 1:0.743396 2:0.2 3:0.5 4:0.16 
0 8 0 1:0.937736 2:0 3:0.5 4:0.11 
0.8093437367942267 0 0 1:1 2:0.2 3:0.5 4:0 
0 8 0 1:0.225602 2:0 3:0.5 4:0.1 
0 2.147447041521679 0 1:0.277567 2:0 3:0.5 4:0.01 
0 1.246799044403371 0 1:1 2:0 3:0.5 4:0.21 
8 0 0 1:0.019964 2:0.8 3:0.5 4:0.23 
0 8 0 1:0.406534 2:0.7 3:0 4:0.07 
0 8 0 1:0.196216 2:0 3:0.5 4:0.23 
0 8 0 1:0.206499 2:0 3:0.5 4:0.17 
0.03857821998234501 0.2215153974456499 0 1:0.258741 2:0.7 3:0 4:0.02 
0 8 0 1:0.270259 2:0 3:0.5 4:0.09 
0 8 0 1:0.272316 2:0 3:0.5 4:0.07 
0 8 0 1:0.285479 2:0 3:0.5 4:0.17 
0 1.042314984896828 0 1:0.494035 2:0.7 3:0.2 4:0.13 
0 8 0 1:0.518305 2:0 3:0.5 4:0.04 
0 8 0 1:0.63225 2:0 3:0.5 4:0.08 
0 8 0 1:0.634718 2:0 3:0.5 4:0.03 
0 8 0 1:0.74784 2:0 3:0.5 4:0.09 
0 4.427721402375188 0 1:0.752365 2:0 3:0.5 4:0.09 
0 8 0 1:0.901275 2:0 3:0.5 4:0.09 
0 8 0 1:0.902509 2:0 3:0.5 4:0.09 
0 4.860763984577188 0 1:0.903743 2:0 3:0.5 4:0.08 
8 0 0 1:0.012605 2:0.8 3:0.5 4:0.2 
0 1.875628532120016 0 1:0.134454 2:0.5 3:0.5 4:0.09 
0 8 0 1:0.686975 2:0 3:0.5 4:1 
0 8 0 1:0.735294 2:0 3:0.5 4:0.07 
0 8 0 1:0.315529 2:0 3:0.5 4:1 
0 0 0.1806193080169546 1:0.322453 2:0 3:0.5 4:0.01 
0 8 0 1:0.342235 2:0 3:0.5 4:0.19 
0 8 0 1:0.347181 2:0 3:0.5 4:0.08 
0 8 0 1:0.458952 2:0 3:0.5 4:0.21 
0 8 0 1:0.466864 2:0 3:0.5 4:0.22 
0 8 0 1:0.474777 2:0 3:0.5 4:0.2 
0 4.660180830321766 0 1:0.604352 2:0 3:0.5 4:0.08 
0 8 0 1:0.643917 2:0 3:0.5 4:0.33 
0 8 0 1:0.659743 2:0 3:0.5 4:0.3 
3.559163395793683 0 0 1:0.66271 2:0 3:0.5 4:0.21 
1.121783304930219 0 0 1:0.665678 2:0 3:0.5 4:0.24 
0.07309360502964383 2.981689761516539 0 1:1 2:0 3:0.5 4:0.56 
0 8 0 1:0.139153 2:0.5 3:0.5 4:0.1 
0 1.795996005888169 0 1:0.144339 2:0.5 3:0.5 4:0.08 
0 7.746118635416155 0 1:0.149525 2:0.5 3:0.5 4:0.1 
0 6.059982964998376 0 1:0.667243 2:0 3:0.5 4:0.01 
2.053453496043019 0 0 1:0.769231 2:0.2 3:0.5 4:0.11 
0 8 0 1:0.894555 2:0 3:0.5 4:0.11 
0.1152867859022819 0 0 1:0.98185 2:0.2 3:0.5 4:0.22 
0.5703720624754605 0.03719697460859898 0 1:1 2:0.7 3:1 4:0.27 
-8 0 0 1:0.507463 2:1 3:1 4:0.26 
-8 0 0 1:0.012295 2:0.8 3:0.5 4:0.18 
-8 0.8458122983177864 0.0960402869152137 1:0.733607 2:1 3:1 4:0.18 
-0.4750136777340756 0 0 1:0.113176 2:1 3:0.5 4:0.2 
-3.673354691794286 0 0 1:0.406389 2:1 3:0.5 4:0.23 
-8 8 0 1:0.081081 2:0.5 3:0.5 4:0.16 
-8 0 0 1:0.189583 2:1 3:0.5 4:0.11 
-2.38034176908957 1.045399785527942 0.02428136056085053 1:0.140351 2:0.7 3:0.9 4:0.29 
-2.930591423675975 0 0 1:0.47973 2:1 3:1 4:0.28 
-1.006323796127472 1.162590478806662 0.1308720591647445 1:0.200188 2:1 3:1 4:0.67 
-0 0.8545644135144345 0 1:0.348328 2:1 3:0.5 4:0.23 
-8 0 0.04916259344017589 1:0.020854 2:0.8 3:0.5 4:0.09 
-8 0 0 1:0.264151 2:1 3:0.5 4:0.09 
-0 0.538290727103472 0.102073646244278 1:0.154725 2:1 3:1 4:0.19 
-8 3.789824284064134 0 1:0.069231 2:0.8 3:0.5 4:0.16 
-8 0 0 1:0.378691 2:1 3:0.5 4:0.15 
-8 0 0 1:0.04902 2:0.8 3:0.5 4:0.2 
-8 8 0 1:0.581699 2:0.5 3:0.5 4:0.2 
-8 8 0.6587329613136121 1:0.584967 2:0.15 3:0.5 4:0.2 
-8 4.443832949262129 0 1:0.80566 2:0.2 3:0.5 4:0.12 
-8 2.291956695740281 0.07837575039311144 1:0.015209 2:0.8 3:0.5 4:0.5 
-8 8 0.2960913550262372 1:0.219265 2:0 3:0.5 4:0.5 
-8 0 0.01333500167811547 1:0.123412 2:1 3:0.5 4:0.12 
-0.9880117353350828 0 0.06296344864052776 1:0.194159 2:1 3:0.4 4:0.18 
-8 0 0.119204581386229 1:0.613445 2:1 3:0.5 4:0.09 
-8 2.409200033825047 0 1:0.619748 2:0.9 3:0.5 4:0.13 
-8 8 0.5412544595337614 1:0.233432 2:0.3 3:0.5 4:0.28 
-8 0 0 1:0.012965 2:0.8 3:0.5 4:0.27 
-8 1.038497463266919 0.08998408882626069 1:0.675022 2:0.7 3:1 4:0.27 
-8 8 0 1:0.675886 2:0.15 3:0.5 4:0.27 
-8 -0 0.245181384083653 1:0.245399 2:0 3:0.5 4:0.06 
-0 -0.2244129427918757 0 1:0.246933 2:0 3:0 4:0.07 
-8 -8 0 1:0.537313 2:0.3 3:0.5 4:0.15 
-8 -2.891378809022646 0 1:0.552239 2:0.3 3:0.5 4:0.11 
-8 -0 0 1:0.820896 2:0 3:0.5 4:0.45 
-8 -0 0 1:0.850746 2:0 3:0.5 4:0.51 
-6.021587444688629 -0 0 1:0.741803 2:0 3:0.5 4:0.89 
-0.429367553798616 -0.1850431622175548 0 1:0.199158 2:0 3:0.2 4:1 
-0 -0.05875065409246955 0 1:0.200561 2:0 3:0.2 4:0.72 
-8 -0 0 1:0.207574 2:0 3:0.2 4:0.04 
-0 -0.162267693393532 0 1:0.234222 2:0 3:0.2 4:0.54 
-0.6677515462757733 -0 0 1:0.238429 2:0 3:0.2 4:0.63 
-8 -0 0 1:0.246844 2:0 3:0.2 4:0.04 
-0 -0.002664829174469926 0 1:0.26648 2:0.7 3:0 4:0.16 
-8 -0 0 1:0.241259 2:0.2 3:0.2 4:0.05 
-8 -0 0 1:0.270979 2:0.3 3:0 4:0.1 
-8 -0 0 1:0.290541 2:0 3:0.5 4:0.18 
-8 -0 0 1:0.310811 2:0 3:0.5 4:0.17 
-8 -0 0 1:0.319257 2:0 3:0.5 4:1 
-1.140151374198642 -0 0 1:0.320946 2:0 3:0.5 4:0.74 
-8 -0 0 1:0.322635 2:0 3:0.5 4:1 
-0.006032701328771408 -0 0 1:0.326014 2:0 3:0.5 4:1 
-8 -0 0 1:0.351351 2:0.3 3:0 4:0.09 
-2.173082945443192 -0.4590934519326186 0 1:0.448737 2:0 3:1 4:0.27 
-8 -0 0 1:0.44948 2:0 3:0.5 4:0.27 
-8 -0 0 1:0.450966 2:0 3:0.5 4:0.38 
-8 -0 0 1:0.459881 2:0.3 3:0 4:0.15 
-8 -7.883689931184066 0 1:0.096525 2:0.5 3:0.5 4:0.09 
-5.912345957048472 -0.3401519594555375 0 1:0.104247 2:0 3:0.5 4:1 
-8 -0 0 1:0.131274 2:0.5 3:0.5 4:0.07 
-8 -2.237210927508984 0 1:0.220833 2:0.5 3:0.5 4:0.23 
-6.078739276131891 -0 0 1:0.585586 2:0 3:0.5 4:1 
-8 -0 0 1:0.312397 2:0 3:0.5 4:0.31 
-8 -0 0 1:0.317355 2:0 3:0.5 4:1 
-0.7798263377249361 -0 0 1:0.330579 2:0.2 3:0.2 4:0.1 
-8 -0 0 1:0.335537 2:0 3:0.5 4:0.37 
-8 -0 0 1:0.33719 2:0 3:0.5 4:0.21 
-2.14370848320564 -0 0 1:0.370248 2:0.3 3:0 4:0.16 
-0.4336544041316135 -0 0 1:0.315663 2:0 3:0.5 4:0.33 
-4.480320292500236 -0 0 1:0.322892 2:0 3:0.5 4:1 
-8 -0 0 1:0.327711 2:0 3:0.5 4:0.1 
-8 -0 0 1:0.33253 2:0 3:0.5 4:0.28 
-0.05293420192431142 -0 0 1:0.337349 2:0 3:0.5 4:1 
-0.08520311872872116 -0 0 1:0.339759 2:0 3:0.5 4:1 
-8 -0 0 1:0.344578 2:0 3:0.5 4:0.29 
-8 -0 0 1:0.346988 2:0 3:0.5 4:0.11 
-0.1923816912678394 -0 0 1:0.351807 2:0 3:0.5 4:1 
-8 -0 0 1:0.359036 2:0 3:0.5 4:0.73 
-0.7584880125558612 -0 0 1:0.361446 2:0 3:0.5 4:1 
-8 -0 0 1:0.363855 2:0 3:0.5 4:0.74 
-8 -0 0 1:0.366265 2:0 3:0.5 4:0.04 
-8 -0 0 1:0.371084 2:0 3:0.5 4:0.05 
-8 -0 0 1:0.375904 2:0 3:0.5 4:0.11 
-8 -0 0 1:0.383133 2:0 3:0.5 4:0.1 
-8 -0 0 1:0.387952 2:0 3:0.5 4:0.17 
-8 -0 0 1:0.39759 2:0 3:0.5 4:0.15 
-8 -0 0 1:0.407229 2:0 3:0.5 4:0.12 
-8 -0 0 1:0.416867 2:0 3:0.5 4:0.15 
-8 -0 0 1:0.421687 2:0 3:0.5 4:0.43 
-8 -0 0 1:0.426506 2:0 3:0.5 4:0.13 
-8 -0 0 1:0.431325 2:0 3:0.5 4:0.15 
-8 -0 0 1:0.436145 2:0 3:0.5 4:0.47 
-8 -0 0 1:0.440964 2:0 3:0.5 4:0.13 
-8 -0 0 1:0.445783 2:0 3:0.5 4:0.44 
-8 -0 0 1:0.450602 2:0 3:0.5 4:0.12 
-8 -0 0 1:0.460241 2:0 3:0.5 4:0.12 
-8 -0 0 1:0.46506 2:0 3:0.5 4:0.12 
-8 -0 0 1:0.46988 2:0 3:0.5 4:0.08 
-8 -0 0 1:0.474699 2:0 3:0.5 4:0.19 
-8 -0 0 1:0.484337 2:0 3:0.5 4:0.11 
-8 -0 0 1:0.493976 2:0 3:0.5 4:0.11 
-8 -0 0 1:0.498795 2:0 3:0.5 4:0.47 
-8 -0 0 1:0.503614 2:0 3:0.5 4:0.17 
-8 -0 0 1:0.508434 2:0 3:0.5 4:0.27 
-8 -0 0 1:0.513253 2:0 3:0.5 4:0.04 
-8 -0 0 1:0.518072 2:0 3:0.5 4:0.13 
-8 -0 0 1:0.522892 2:0 3:0.5 4:0.21 
-8 -0 0 1:0.53494 2:0 3:0.5 4:0.42 
-8 -0 0 1:0.539759 2:0 3:0.5 4:0.19 
-8 -0 0 1:0.542169 2:0 3:0.5 4:0.06 
-8 -0 0 1:0.166667 2:0 3:0.2 4:0.04 
-0 -2.345256254135529 0 1:0.184211 2:0 3:0.5 4:0.32 
-8 -0 0 1:0.190058 2:0 3:0.5 4:0.05 
-8 -0 0 1:0.19883 2:0 3:0.5 4:0.1 
-0 -0.1834335480842623 0 1:0.21345 2:0 3:0.5 4:0.59 
-8 -0 0 1:0.315436 2:0 3:0.5 4:0.31 
-8 -0 0 1:0.342282 2:0 3:0.5 4:0.21 
-8 -0 0 1:0.369128 2:0 3:0.5 4:0.29 
-8 -0 0 1:0.395973 2:0 3:0.5 4:0.25 
-0.6568592007824796 -0 0 1:0.416107 2:0 3:0.5 4:1 
-1.152358992597115 -0 0 1:0.42953 2:0 3:0.5 4:1 
-8 -0 0 1:0.436242 2:0 3:0.5 4:0.75 
-7.561838914304784 -0 0 1:0.530781 2:0 3:0.5 4:0.81 
-8 -0 0 1:0.537538 2:0 3:0.5 4:0.48 
-0 -0.1319743314370113 0 1:0.546547 2:0 3:0.5 4:1 
-8 -0 0 1:0.538776 2:0 3:0.5 4:0.39 
-8 -0 0 1:0.55102 2:0 3:0.5 4:0.11 
-0 -0.02137955580249925 0 1:0.569388 2:0 3:0.5 4:1 
-8 -0 0 1:0.57551 2:0 3:0.5 4:0.78 
-1.535307988858729 -0 0 1:0.6 2:0 3:0.5 4:1 
-8 -0.4525219392411434 0 1:0.657143 2:0.3 3:0 4:0.17 
-8 -1.643059263977248 0 1:0.218088 2:0.3 3:0.5 4:0.13 
-8 -0 0 1:0.222798 2:0 3:0.5 4:0.1 
-8 -0 0 1:0.224211 2:0 3:0.5 4:0.04 
-0 -7.04042827586533 0 1:0.229863 2:0 3:0.5 4:0.48 
-8 -0 0 1:0.231276 2:0 3:0.5 4:0.05 
-8 -0 0 1:0.469846 2:0.7 3:0.5 4:0.51 
-8 -0 0 1:0.483871 2:0.15 3:0.5 4:0.11 
-8 -0 0 1:0.486676 2:0.15 3:0.5 4:0.1 
-8 -1.550356359882917 0 1:0.489481 2:0.15 3:0.5 4:0.16 
-8 -0 0 1:0.493689 2:0 3:0.5 4:0.07 
-8 -0 0 1:0.510519 2:0 3:0.5 4:0.27 
-8 -0 0 1:0.514727 2:0 3:0.5 4:0.2 
-8 -0 0 1:0.527349 2:0 3:0.5 4:0.08 
-8 -0 0 1:0.542777 2:0 3:0.5 4:0.34 
-8 -0 0 1:0.546985 2:0 3:0.5 4:0.2 
-8 -0 0 1:0.5554 2:0 3:0.5 4:0.51 
-1.300628600797531 -0 0 1:0.559607 2:0 3:0.5 4:0.52 
-8 -0 0 1:0.58906 2:0 3:0.5 4:0.1 
-0.5766937820169733 -0 0 1:0.596073 2:0 3:0.5 4:0.59 
-8 -0 0 1:0.600281 2:0 3:0.5 4:0.16 
-8 -0 0 1:0.604488 2:0 3:0.5 4:0.62 
-8 -0 0 1:0.608696 2:0 3:0.5 4:0.68 
-8 -0 0 1:0.612903 2:0 3:0.5 4:0.54 
-8 -0 0 1:0.617111 2:0 3:0.5 4:0.71 
-1.093598241199971 -0 0 1:0.621318 2:0 3:0.5 4:1 
-8 -0 0 1:0.625526 2:0 3:0.5 4:0.57 
-2.774198980048709 -0 0 1:0.629734 2:0 3:0.5 4:1 
-3.391804934286339 -0 0 1:0.633941 2:0 3:0.5 4:1 
-8 -0 0 1:0.638149 2:0 3:0.5 4:0.1 
-8 -2.628616756357219 0 1:0.645161 2:0 3:0.5 4:0.29 
-8 -0 0 1:0.649369 2:0 3:0.5 4:0.32 
-8 -0 0 1:0.653576 2:0 3:0.5 4:0.51 
-8 -0 0 1:0.657784 2:0 3:0.5 4:0.46 
-8 -0 0 1:0.661992 2:0 3:0.5 4:0.34 
-8 -0 0 1:0.666199 2:0 3:0.5 4:0.56 
-8 -0 0 1:0.670407 2:0 3:0.5 4:0.02 
-8 -0 0 1:0.674614 2:0 3:0.5 4:0.72 
-8 -0 0 1:0.683029 2:0 3:0.5 4:0.61 
-8 -0 0 1:0.236181 2:0 3:0.5 4:0.11 
-8 -0 0 1:0.237856 2:0 3:0.5 4:0.1 
-8 -0 0 1:0.241206 2:0 3:0.5 4:0.07 
-8 -0 0 1:0.25349 2:0.3 3:0.5 4:0.75 
-8 -0 0.1052451344064443 1:0.255165 2:0 3:0.5 4:0.08 
-8 -0 0 1:0.278615 2:0.3 3:0.5 4:0.93 
-8 -0 0.2421519896964415 1:0.28029 2:0 3:0.5 4:0.1 
-8 -0 0 1:0.284757 2:0 3:0.5 4:0.16 
-8 -0 0 1:0.299832 2:0 3:0.5 4:0.1 
-1.367322976455747 -0 0 1:0.317141 2:0 3:0.5 4:1 
-8 -0 0.5512611034564838 1:0.318816 2:0 3:0.5 4:0.07 
-8 -0 0 1:0.21455 2:0.7 3:0.5 4:0.46 
-8 -0 0 1:0.221332 2:0 3:0.5 4:0.08 
-8 -0 0 1:0.22688 2:0 3:0.5 4:0.02 
-8 -0 0 1:0.229963 2:0 3:0.5 4:0.14 
-8 -0 0 1:0.236128 2:0 3:0.5 4:0.06 
-8 -0 0 1:0.239827 2:0 3:0.5 4:0.12 
-8 -0 0 1:0.241677 2:0 3:0.5 4:0.04 
-8 -0 0 1:0.243527 2:0 3:0.5 4:0.08 
-0.2506567318261726 -0 0 1:0.245376 2:0 3:0.5 4:0.15 
-8 -0 0 1:0.247226 2:0 3:0.5 4:0.04 
-8 -0 0 1:0.249075 2:0 3:0.5 4:0.11 
-8 -0 5.44172142052734 1:0.262022 2:0 3:0.5 4:0.03 
-0 -0.1486600901612444 0 1:0.281751 2:0.2 3:0.2 4:0.18 
-8 -0 1.329762061775912 1:0.293465 2:0 3:0.5 4:0.05 
-8 -0 0 1:0.296547 2:0 3:0.5 4:0.1 
-8 -0 0 1:0.31566 2:0 3:0.5 4:0.02 
-8 -0 0 1:0.318742 2:0 3:0.5 4:0.08 
-8 -0 0 1:0.323058 2:0 3:0.5 4:1 
-8 -0 0 1:0.328607 2:0 3:0.5 4:0.29 
-8 -0 0 1:0.380039 2:0 3:0.5 4:0.13 
-8 -0 0 1:0.380531 2:0 3:0.5 4:0.79 
-8 -0 0 1:0.381514 2:0 3:0.5 4:0.19 
-8 -0 0 1:0.382252 2:0 3:0.5 4:0.07 
-8 -0 0 1:0.383727 2:0 3:0.5 4:0.79 
-3.228580286471084 -0 0 1:0.384956 2:0 3:0.5 4:1 
-0.551528215389106 -0 0 1:0.386185 2:0 3:0.5 4:1 
-8 -0 0 1:0.387168 2:0 3:0.5 4:0.31 
-8 -0 0 1:0.387906 2:0 3:0.5 4:0.16 
-1.35371974380267 -0 0 1:0.388889 2:0 3:0.5 4:1 
-0.5365223128694923 -0.07122667080057402 0 1:0.259939 2:0 3:0.2 4:1 
-7.52843803535466 -0.1212903201340301 0 1:0.269113 2:0.7 3:0 4:0.15 
-8 -0 0 1:0.274172 2:0 3:0.5 4:0.13 
-8 -0 0 1:0.284768 2:0 3:0.5 4:0.03 
-7.276107220186391 -0.3345560370378198 0 1:0.468212 2:0.7 3:0 4:0.14 
-8 -0 0 1:0.230307 2:0.7 3:0.5 4:0.57 
-8 -0 0 1:0.267023 2:0.2 3:0.2 4:0.01 
-8 -0 0 1:0.211985 2:0.3 3:0.1 4:0.06 
-8 -0 0 1:0.313109 2:0.3 3:0 4:0.1 
-8 -0 0 1:0.249598 2:0 3:0.5 4:0.12 
-8 -2.646541151975152 0 1:0.241176 2:0.3 3:0.5 4:0.54 
-8 -0 0 1:0.24385 2:0.3 3:0.5 4:0.59 
-3.792207386028033 -0 0 1:0.259358 2:0 3:0 4:0.07 
-8 -0 0 1:0.337637 2:0 3:0.5 4:0.3 
-8 -0 0 1:0.339623 2:0 3:0.5 4:1 
-8 -0 0 1:0.341609 2:0 3:0.5 4:1 
-8 -0 0 1:0.343595 2:0 3:0.5 4:1 
-8 -0 0 1:0.345581 2:0 3:0.5 4:1 
-8 -0 0 1:0.347567 2:0 3:0.5 4:1 
-8 -5.974187447794551 0 1:0.208486 2:0.7 3:0.5 4:0.31 
-8 -0 0 1:0.297732 2:0 3:0.5 4:0.01 
-8 -0 0 1:0.324067 2:0.2 3:0.2 4:0.04 
-8 -0 0 1:0.271378 2:0.2 3:0.2 4:0.07 
-8 -0 0.08467690605372345 1:0.308834 2:0 3:0.5 4:0.04 
-8 -0 0 1:0.24126 2:0.3 3:0.5 4:0.04 
-8 -0 0 1:0.323077 2:0 3:0.5 4:1 
-8 -0 0 1:0.507692 2:0 3:0.5 4:0.42 
-8 -0 0 1:0.7 2:0 3:0.5 4:0.51 
-8 -0 0 1:0.823077 2:0 3:0.5 4:0.37 
-1.091195320474609 -0 0 1:0.930769 2:0 3:0.5 4:1 
-8 -0.3481606017206305 0 1:1 2:0 3:0.5 4:0.15 
-8 -0 0 1:0.410783 2:0 3:0.5 4:1 
-8 -0 0 1:0.417202 2:0 3:0.5 4:0.34 
-8 -0 0 1:0.422336 2:0 3:0.5 4:0.46 
-0.108930112941912 -0 0 1:0.427471 2:0 3:0.5 4:1 
-8 -0 0 1:0.442875 2:0 3:0.5 4:0.06 
-8 -0 0 1:0.446727 2:0 3:0.5 4:0.14 
-7.218468281669574 -0 0 1:0.450578 2:0 3:0.5 4:0.72 
-8 -0 0 1:0.465982 2:0 3:0.5 4:0.04 
-8 -0 0 1:0.468549 2:0 3:0.5 4:0.06 
-8 -0 0 1:0.472401 2:0 3:0.5 4:0.17 
-8 -0 0 1:0.478819 2:0 3:0.5 4:0.15 
-8 -0 0 1:0.48267 2:0 3:0.5 4:0.41 
-1.809462290107535 -0 0 1:0.49294 2:0 3:0.5 4:0.85 
-8 -0 0 1:0.500642 2:0 3:0.5 4:0.14 
-8 -0 0 1:0.504493 2:0 3:0.5 4:0.4 
-8 -0 0 1:0.521181 2:0 3:0.5 4:0.06 
-8 -0 0 1:0.656863 2:0.5 3:0.5 4:0.39 
-8 -0 0 1:0.745098 2:0 3:0.5 4:0.73 
-8 -0 0 1:0.784314 2:0 3:0.5 4:0.51 
-8 -0 0 1:0.823529 2:0 3:0.5 4:0.6 
-8 -0 0 1:0.843396 2:0 3:0.5 4:0.1 
-8 -0 0 1:0.850943 2:0 3:0.5 4:0.02 
-8 -0 0 1:0.854717 2:0 3:0.5 4:0.1 
-8 -0 0 1:0.866038 2:0 3:0.5 4:0.02 
-8 -0 0 1:0.869811 2:0 3:0.5 4:0.1 
-8 -0 0 1:0.873585 2:0 3:0.5 4:0.57 
-8 -0 0 1:0.884906 2:0 3:0.5 4:0.05 
-8 -0 0 1:0.888679 2:0 3:0.5 4:0.11 
-8 -0 0 1:0.892453 2:0 3:0.5 4:0.3 
-8 -0 0 1:0.907547 2:0 3:0.5 4:0.13 
-8 -0 0 1:0.918868 2:0 3:0.5 4:0.16 
-8 -0 0 1:0.926415 2:0 3:0.5 4:0.51 
-8 -0.4972794526772298 0 1:0.930189 2:0 3:0.5 4:0.04 
-8 -0 0 1:0.933962 2:0 3:0.5 4:1 
-8 -0.4178025947378959 0 1:0.941509 2:0 3:0.5 4:1 
-8 -0 0 1:0.297641 2:0 3:0.5 4:0.18 
-8 -0 0 1:0.321234 2:0 3:0.5 4:0.2 
-0.03373978335793107 -0 0 1:0.326679 2:0 3:0.5 4:1 
-0.06604500009668543 -0 0 1:0.332123 2:0 3:0.5 4:1 
-0.1549147474152786 -0 0 1:0.348457 2:0 3:0.5 4:1 
-8 -0 0 1:0.353902 2:0 3:0.5 4:0.19 
-8 -0 0 1:0.361162 2:0 3:0.5 4:0.2 
-3.871209609071894 -0 0 1:0.372051 2:0 3:0.5 4:1 
-1.638805120002015 -0 0 1:0.38294 2:0 3:0.5 4:1 
-3.434089442208776 -0 0 1:0.393829 2:0 3:0.5 4:1 
-8 -0 0 1:0.399274 2:0 3:0.5 4:0.26 
-8 -0 0 1:0.232415 2:0 3:0.4 4:0 
-8 -7.325090191571868 0 1:0.655462 2:0.3 3:0.5 4:0.36 
-8 -0 0 1:0.298714 2:0 3:0.5 4:0.15 
-8 -0 0 1:0.301682 2:0 3:0.5 4:0.02 
-8 -0 0 1:0.304649 2:0 3:0.5 4:0.16 
-8 -5.971022587001174 0 1:0.748487 2:0 3:0.5 4:0.17 
-8 -4.122461338259722 0 1:0.755402 2:0.7 3:0.5 4:0.24 
-8 -2.262371593123118 -8 1:0.271696 2:0 3:0.5 4:0.04 
